{"learner":{"attributes":{"scikit_learn":"{\"_estimator_type\": \"classifier\"}"},"feature_names":["f1","f2","f3","f4","f5","f6","f7","f8","f9","f10","f11","f12","f13","f14","f15","f16","f17","f18"],"feature_types":["int","int","float","float","int","int","float","float","float","float","int","int","int","int","int","int","int","float"],"gradient_booster":{"model":{"gbtree_model_param":{"num_parallel_tree":"1","num_trees":"750"},"iteration_indptr":[0,1,2,3,4,5,6,7,8,9,10,11,12,13,14,15,16,17,18,19,20,21,22,23,24,25,26,27,28,29,30,31,32,33,34,35,36,37,38,39,40,41,42,43,44,45,46,47,48,49,50,51,52,53,54,55,56,57,58,59,60,61,62,63,64,65,66,67,68,69,70,71,72,73,74,75,76,77,78,79,80,81,82,83,84,85,86,87,88,89,90,91,92,93,94,95,96,97,98,99,100,101,102,103,104,105,106,107,108,109,110,111,112,113,114,115,116,117,118,119,120,121,122,123,124,125,126,127,128,129,130,131,132,133,134,135,136,137,138,139,140,141,142,143,144,145,146,147,148,149,150,151,152,153,154,155,156,157,158,159,160,161,162,163,164,165,166,167,168,169,170,171,172,173,174,175,176,177,178,179,180,181,182,183,184,185,186,187,188,189,190,191,192,193,194,195,196,197,198,199,200,201,202,203,204,205,206,207,208,209,210,211,212,213,214,215,216,217,218,219,220,221,222,223,224,225,226,227,228,229,230,231,232,233,234,235,236,237,238,239,240,241,242,243,244,245,246,247,248,249,250,251,252,253,254,255,256,257,258,259,260,261,262,263,264,265,266,267,268,269,270,271,272,273,274,275,276,277,278,279,280,281,282,283,284,285,286,287,288,289,290,291,292,293,294,295,296,297,298,299,300,301,302,303,304,305,306,307,308,309,310,311,312,313,314,315,316,317,318,319,320,321,322,323,324,325,326,327,328,329,330,331,332,333,334,335,336,337,338,339,340,341,342,343,344,345,346,347,348,349,350,351,352,353,354,355,356,357,358,359,360,361,362,363,364,365,366,367,368,369,370,371,372,373,374,375,376,377,378,379,380,381,382,383,384,385,386,387,388,389,390,391,392,393,394,395,396,397,398,399,400,401,402,403,404,405,406,407,408,409,410,411,412,413,414,415,416,417,418,419,420,421,422,423,424,425,426,427,428,429,430,431,432,433,434,435,436,437,438,439,440,441,442,443,444,445,446,447,448,449,450,451,452,453,454,455,456,457,458,459,460,461,462,463,464,465,466,467,468,469,470,471,472,473,474,475,476,477,478,479,480,481,482,483,484,485,486,487,488,489,490,491,492,493,494,495,496,497,498,499,500,501,502,503,504,505,506,507,508,509,510,511,512,513,514,515,516,517,518,519,520,521,522,523,524,525,526,527,528,529,530,531,532,533,534,535,536,537,538,539,540,541,542,543,544,545,546,547,548,549,550,551,552,553,554,555,556,557,558,559,560,561,562,563,564,565,566,567,568,569,570,571,572,573,574,575,576,577,578,579,580,581,582,583,584,585,586,587,588,589,590,591,592,593,594,595,596,597,598,599,600,601,602,603,604,605,606,607,608,609,610,611,612,613,614,615,616,617,618,619,620,621,622,623,624,625,626,627,628,629,630,631,632,633,634,635,636,637,638,639,640,641,642,643,644,645,646,647,648,649,650,651,652,653,654,655,656,657,658,659,660,661,662,663,664,665,666,667,668,669,670,671,672,673,674,675,676,677,678,679,680,681,682,683,684,685,686,687,688,689,690,691,692,693,694,695,696,697,698,699,700,701,702,703,704,705,706,707,708,709,710,711,712,713,714,715,716,717,718,719,720,721,722,723,724,725,726,727,728,729,730,731,732,733,734,735,736,737,738,739,740,741,742,743,744,745,746,747,748,749,750],"tree_info":[0,0,0,0,0,0,0,0,0,0,0,0,0,0,0,0,0,0,0,0,0,0,0,0,0,0,0,0,0,0,0,0,0,0,0,0,0,0,0,0,0,0,0,0,0,0,0,0,0,0,0,0,0,0,0,0,0,0,0,0,0,0,0,0,0,0,0,0,0,0,0,0,0,0,0,0,0,0,0,0,0,0,0,0,0,0,0,0,0,0,0,0,0,0,0,0,0,0,0,0,0,0,0,0,0,0,0,0,0,0,0,0,0,0,0,0,0,0,0,0,0,0,0,0,0,0,0,0,0,0,0,0,0,0,0,0,0,0,0,0,0,0,0,0,0,0,0,0,0,0,0,0,0,0,0,0,0,0,0,0,0,0,0,0,0,0,0,0,0,0,0,0,0,0,0,0,0,0,0,0,0,0,0,0,0,0,0,0,0,0,0,0,0,0,0,0,0,0,0,0,0,0,0,0,0,0,0,0,0,0,0,0,0,0,0,0,0,0,0,0,0,0,0,0,0,0,0,0,0,0,0,0,0,0,0,0,0,0,0,0,0,0,0,0,0,0,0,0,0,0,0,0,0,0,0,0,0,0,0,0,0,0,0,0,0,0,0,0,0,0,0,0,0,0,0,0,0,0,0,0,0,0,0,0,0,0,0,0,0,0,0,0,0,0,0,0,0,0,0,0,0,0,0,0,0,0,0,0,0,0,0,0,0,0,0,0,0,0,0,0,0,0,0,0,0,0,0,0,0,0,0,0,0,0,0,0,0,0,0,0,0,0,0,0,0,0,0,0,0,0,0,0,0,0,0,0,0,0,0,0,0,0,0,0,0,0,0,0,0,0,0,0,0,0,0,0,0,0,0,0,0,0,0,0,0,0,0,0,0,0,0,0,0,0,0,0,0,0,0,0,0,0,0,0,0,0,0,0,0,0,0,0,0,0,0,0,0,0,0,0,0,0,0,0,0,0,0,0,0,0,0,0,0,0,0,0,0,0,0,0,0,0,0,0,0,0,0,0,0,0,0,0,0,0,0,0,0,0,0,0,0,0,0,0,0,0,0,0,0,0,0,0,0,0,0,0,0,0,0,0,0,0,0,0,0,0,0,0,0,0,0,0,0,0,0,0,0,0,0,0,0,0,0,0,0,0,0,0,0,0,0,0,0,0,0,0,0,0,0,0,0,0,0,0,0,0,0,0,0,0,0,0,0,0,0,0,0,0,0,0,0,0,0,0,0,0,0,0,0,0,0,0,0,0,0,0,0,0,0,0,0,0,0,0,0,0,0,0,0,0,0,0,0,0,0,0,0,0,0,0,0,0,0,0,0,0,0,0,0,0,0,0,0,0,0,0,0,0,0,0,0,0,0,0,0,0,0,0,0,0,0,0,0,0,0,0,0,0,0,0,0,0,0,0,0,0,0,0,0,0,0,0,0,0,0,0,0,0,0,0,0,0,0,0,0,0,0,0,0,0,0,0,0,0,0,0,0,0,0,0,0,0,0,0,0,0,0,0,0,0,0,0,0,0,0,0,0,0,0,0,0,0,0,0,0,0,0,0,0,0,0,0,0,0,0,0,0,0,0,0,0,0,0,0,0,0,0,0,0,0,0,0,0,0,0,0,0,0,0,0,0,0,0,0,0,0,0,0,0,0,0,0,0,0,0,0,0,0,0,0,0,0,0,0,0,0,0,0,0,0],"trees":[{"base_weights":[-3.2432433E-2,-1.6858639E0,1.693989E0,-9.774012E-3,6.666667E-3,9.760479E-3,-4E-3],"categories":[],"categories_nodes":[],"categories_segments":[],"categories_sizes":[],"default_left":[0,0,0,0,0,0,0],"id":0,"left_children":[1,3,5,-1,-1,-1,-1],"loss_changes":[2.668989E2,4.1378357E1,3.1011658E1,0E0,0E0,0E0,0E0],"parents":[2147483647,0,0,1,1,2,2],"right_children":[2,4,6,-1,-1,-1,-1],"split_conditions":[1.9014499E-1,2.4906342E1,1E0,-9.774012E-3,6.666667E-3,9.760479E-3,-4E-3],"split_indices":[3,17,12,0,0,0,0],"split_type":[0,0,0,0,0,0,0],"sum_hessian":[9.15E1,4.675E1,4.475E1,4.325E1,3.5E0,4.075E1,4E0],"tree_param":{"num_deleted":"0","num_feature":"18","num_nodes":"7","size_leaf_vector":"1"}},{"base_weights":[4.2190563E-2,-1.6725471E0,1.7030237E0,-9.722597E-3,6.6407975E-3,9.726538E-3,-3.3171528E-3],"categories":[],"categories_nodes":[],"categories_segments":[],"categories_sizes":[],"default_left":[0,0,0,0,0,0,0],"id":1,"left_children":[1,3,5,-1,-1,-1,-1],"loss_changes":[2.719683E2,4.0938904E1,2.9097656E1,0E0,0E0,0E0,0E0],"parents":[2147483647,0,0,1,1,2,2],"right_children":[2,4,6,-1,-1,-1,-1],"split_conditions":[1.9014499E-1,2.4906342E1,1E0,-9.722597E-3,6.6407975E-3,9.726538E-3,-3.3171528E-3],"split_indices":[3,17,12,0,0,0,0],"split_type":[0,0,0,0,0,0,0],"sum_hessian":[9.3497894E1,4.5998943E1,4.749895E1,4.249898E1,3.4999611E0,4.324897E1,4.2499833E0],"tree_param":{"num_deleted":"0","num_feature":"18","num_nodes":"7","size_leaf_vector":"1"}},{"base_weights":[-4.1868355E-2,-1.6772726E0,1.701095E0,-9.685782E-3,6.6151437E-3,9.664847E-3,-1.7882677E-3],"categories":[],"categories_nodes":[],"categories_segments":[],"categories_sizes":[],"default_left":[0,0,0,0,0,0,0],"id":2,"left_children":[1,3,5,-1,-1,-1,-1],"loss_changes":[2.7077182E2,4.0766266E1,2.264856E1,0E0,0E0,0E0,0E0],"parents":[2147483647,0,0,1,1,2,2],"right_children":[2,4,6,-1,-1,-1,-1],"split_conditions":[1.9014499E-1,2.4906342E1,1E0,-9.685782E-3,6.6151437E-3,9.664847E-3,-1.7882677E-3],"split_indices":[3,17,12,0,0,0,0],"split_type":[0,0,0,0,0,0,0],"sum_hessian":[9.2991714E1,4.7995617E1,4.4996094E1,4.4495773E1,3.499845E0,4.0496155E1,4.4999394E0],"tree_param":{"num_deleted":"0","num_feature":"18","num_nodes":"7","size_leaf_vector":"1"}},{"base_weights":[-5.071169E-2,-1.7121038E0,1.6459599E0,-9.64419E-3,6.1757523E-3,-2.5058803E-3,9.521542E-3],"categories":[],"categories_nodes":[],"categories_segments":[],"categories_sizes":[],"default_left":[0,0,0,0,0,0,0],"id":3,"left_children":[1,3,5,-1,-1,-1,-1],"loss_changes":[2.7619128E2,3.3995163E1,2.7852737E1,0E0,0E0,0E0,0E0],"parents":[2147483647,0,0,1,1,2,2],"right_children":[2,4,6,-1,-1,-1,-1],"split_conditions":[1.7153311E-1,2.4906342E1,-9.813628E-1,-9.64419E-3,6.1757523E-3,-2.5058803E-3,9.521542E-3],"split_indices":[3,17,6,0,0,0,0],"split_type":[0,0,0,0,0,0,0],"sum_hessian":[9.5980865E1,4.8490017E1,4.749085E1,4.5490314E1,2.9997022E0,4.999561E0,4.2491287E1],"tree_param":{"num_deleted":"0","num_feature":"18","num_nodes":"7","size_leaf_vector":"1"}},{"base_weights":[5.0155935E-4,-1.6513246E0,1.6698402E0,-9.58821E-3,7.547296E-3,-1.8229703E-3,9.469451E-3],"categories":[],"categories_nodes":[],"categories_segments":[],"categories_sizes":[],"default_left":[0,0,0,0,0,0,0],"id":4,"left_children":[1,3,5,-1,-1,-1,-1],"loss_changes":[2.6049136E2,4.2864624E1,2.2106873E1,0E0,0E0,0E0,0E0],"parents":[2147483647,0,0,1,1,2,2],"right_children":[2,4,6,-1,-1,-1,-1],"split_conditions":[1.9014499E-1,2.4906342E1,-9.813628E-1,-9.58821E-3,7.547296E-3,-1.8229703E-3,9.469451E-3],"split_indices":[3,17,6,0,0,0,0],"split_type":[0,0,0,0,0,0,0],"sum_hessian":[9.246797E1,4.6483204E1,4.598477E1,4.323377E1,3.249435E0,4.4996324E0,4.1485138E1],"tree_param":{"num_deleted":"0","num_feature":"18","num_nodes":"7","size_leaf_vector":"1"}},{"base_weights":[5.156407E-2,-1.6249208E0,1.6925284E0,-9.531295E-3,1.8301018E-3,9.549852E-3,-2.359962E-3],"categories":[],"categories_nodes":[],"categories_segments":[],"categories_sizes":[],"default_left":[0,0,0,0,0,0,0],"id":5,"left_children":[1,3,5,-1,-1,-1,-1],"loss_changes":[2.6533582E2,2.7429153E1,2.3834488E1,0E0,0E0,0E0,0E0],"parents":[2147483647,0,0,1,1,2,2],"right_children":[2,4,6,-1,-1,-1,-1],"split_conditions":[1.8338788E-1,5.8110565E-1,1E0,-9.531295E-3,1.8301018E-3,9.549852E-3,-2.359962E-3],"split_indices":[3,9,12,0,0,0,0],"split_type":[0,0,0,0,0,0,0],"sum_hessian":[9.444916E1,4.6723774E1,4.7725388E1,4.097602E1,5.7477527E0,4.3475548E1,4.2498393E0],"tree_param":{"num_deleted":"0","num_feature":"18","num_nodes":"7","size_leaf_vector":"1"}},{"base_weights":[6.252871E-2,-1.6850706E0,1.6507013E0,-9.493194E-3,7.0177475E-3,9.506564E-3,-2.4610602E-3],"categories":[],"categories_nodes":[],"categories_segments":[],"categories_sizes":[],"default_left":[0,0,0,0,0,0,0],"id":6,"left_children":[1,3,5,-1,-1,-1,-1],"loss_changes":[2.6348013E2,3.248987E1,2.7634277E1,0E0,0E0,0E0,0E0],"parents":[2147483647,0,0,1,1,2,2],"right_children":[2,4,6,-1,-1,-1,-1],"split_conditions":[1.5925953E-1,2.4906342E1,1E0,-9.493194E-3,7.0177475E-3,9.506564E-3,-2.4610602E-3],"split_indices":[3,17,12,0,0,0,0],"split_type":[0,0,0,0,0,0,0],"sum_hessian":[9.292886E1,4.4214706E1,4.871416E1,4.1715492E1,2.4992135E0,4.3714535E1,4.9996266E0],"tree_param":{"num_deleted":"0","num_feature":"18","num_nodes":"7","size_leaf_vector":"1"}},{"base_weights":[2.0467233E-2,-9.434147E-3,1.3583996E0,9.383731E-3,-6.321795E-3],"categories":[],"categories_nodes":[],"categories_segments":[],"categories_sizes":[],"default_left":[0,0,0,0,0],"id":7,"left_children":[1,-1,3,-1,-1],"loss_changes":[2.472863E2,0E0,7.9788994E1,0E0,0E0],"parents":[2147483647,0,0,2,2],"right_children":[2,-1,4,-1,-1],"split_conditions":[3.005646E-1,-9.434147E-3,1E0,9.383731E-3,-6.321795E-3],"split_indices":[2,0,12,0,0],"split_type":[0,0,0,0,0],"sum_hessian":[9.4900925E1,3.8956303E1,5.5944622E1,4.6950115E1,8.994508E0],"tree_param":{"num_deleted":"0","num_feature":"18","num_nodes":"5","size_leaf_vector":"1"}},{"base_weights":[-7.5262025E-2,-1.7989093E0,1.3963513E0,-9.41416E-3,3.1579856E-3,9.315783E-3,-5.389461E-3],"categories":[],"categories_nodes":[],"categories_segments":[],"categories_sizes":[],"default_left":[0,0,0,0,0,0,0],"id":8,"left_children":[1,3,5,-1,-1,-1,-1],"loss_changes":[2.4759528E2,1.0355164E1,6.2857933E1,0E0,0E0,0E0,0E0],"parents":[2147483647,0,0,1,1,2,2],"right_children":[2,4,6,-1,-1,-1,-1],"split_conditions":[4.4644904E-1,2.6757444E1,1E0,-9.41416E-3,3.1579856E-3,9.315783E-3,-5.389461E-3],"split_indices":[2,17,12,0,0,0,0],"split_type":[0,0,0,0,0,0,0],"sum_hessian":[9.562104E1,4.3936916E1,5.1684124E1,4.2688274E1,1.2486424E0,4.368856E1,7.995562E0],"tree_param":{"num_deleted":"0","num_feature":"18","num_nodes":"7","size_leaf_vector":"1"}},{"base_weights":[2.016677E-2,-1.6716908E0,1.6420523E0,-9.375052E-3,5.786737E-3,9.375385E-3,-2.6411866E-3],"categories":[],"categories_nodes":[],"categories_segments":[],"categories_sizes":[],"default_left":[0,0,0,0,0,0,0],"id":9,"left_children":[1,3,5,-1,-1,-1,-1],"loss_changes":[2.6161728E2,2.9014618E1,2.5605011E1,0E0,0E0,0E0,0E0],"parents":[2147483647,0,0,1,1,2,2],"right_children":[2,4,6,-1,-1,-1,-1],"split_conditions":[1.9014499E-1,2.4809063E1,1E0,-9.375052E-3,5.786737E-3,9.375385E-3,-2.6411866E-3],"split_indices":[3,17,12,0,0,0,0],"split_type":[0,0,0,0,0,0,0],"sum_hessian":[9.3341225E1,4.5670097E1,4.7671127E1,4.2922535E1,2.7475646E0,4.317178E1,4.4993477E0],"tree_param":{"num_deleted":"0","num_feature":"18","num_nodes":"7","size_leaf_vector":"1"}},{"base_weights":[1.4582355E-2,-1.6331953E0,1.6044811E0,-9.3386965E-3,6.2261214E-3,9.33927E-3,-3.226315E-3],"categories":[],"categories_nodes":[],"categories_segments":[],"categories_sizes":[],"default_left":[0,0,0,0,0,0,0],"id":10,"left_children":[1,3,5,-1,-1,-1,-1],"loss_changes":[2.5817923E2,3.500009E1,3.0920746E1,0E0,0E0,0E0,0E0],"parents":[2147483647,0,0,1,1,2,2],"right_children":[2,4,6,-1,-1,-1,-1],"split_conditions":[1.5925953E-1,2.4906342E1,1E0,-9.3386965E-3,6.2261214E-3,9.33927E-3,-3.226315E-3],"split_indices":[3,17,12,0,0,0,0],"split_type":[0,0,0,0,0,0,0],"sum_hessian":[9.654899E1,4.7398132E1,4.9150856E1,4.4151623E1,3.2465105E0,4.4151836E1,4.9990196E0],"tree_param":{"num_deleted":"0","num_feature":"18","num_nodes":"7","size_leaf_vector":"1"}},{"base_weights":[-2.4232896E-2,-1.5992882E0,1.5910828E0,-9.306613E-3,6.5634823E-3,9.293187E-3,-3.2129912E-3],"categories":[],"categories_nodes":[],"categories_segments":[],"categories_sizes":[],"default_left":[0,0,0,0,0,0,0],"id":11,"left_children":[1,3,5,-1,-1,-1,-1],"loss_changes":[2.5316612E2,4.0880386E1,3.0557816E1,0E0,0E0,0E0,0E0],"parents":[2147483647,0,0,1,1,2,2],"right_children":[2,4,6,-1,-1,-1,-1],"split_conditions":[1.9014499E-1,2.4906342E1,1E0,-9.306613E-3,6.5634823E-3,9.293187E-3,-3.2129912E-3],"split_indices":[3,17,12,0,0,0,0],"split_type":[0,0,0,0,0,0,0],"sum_hessian":[9.750656E1,4.937354E1,4.8133022E1,4.5628475E1,3.7450635E0,4.3134224E1,4.998799E0],"tree_param":{"num_deleted":"0","num_feature":"18","num_nodes":"7","size_leaf_vector":"1"}},{"base_weights":[2.5101976E-2,-1.5632179E0,1.6374197E0,-9.256927E-3,6.6927015E-3,9.2500895E-3,-2.2557739E-3],"categories":[],"categories_nodes":[],"categories_segments":[],"categories_sizes":[],"default_left":[0,0,0,0,0,0,0],"id":12,"left_children":[1,3,5,-1,-1,-1,-1],"loss_changes":[2.4831712E2,4.3329895E1,2.219757E1,0E0,0E0,0E0,0E0],"parents":[2147483647,0,0,1,1,2,2],"right_children":[2,4,6,-1,-1,-1,-1],"split_conditions":[1.9014499E-1,2.4906342E1,1E0,-9.256927E-3,6.6927015E-3,9.2500895E-3,-2.2557739E-3],"split_indices":[3,17,12,0,0,0,0],"split_type":[0,0,0,0,0,0,0],"sum_hessian":[9.496617E1,4.7854446E1,4.7111725E1,4.3860706E1,3.9937375E0,4.2862885E1,4.248839E0],"tree_param":{"num_deleted":"0","num_feature":"18","num_nodes":"7","size_leaf_vector":"1"}},{"base_weights":[2.974909E-2,-1.5811551E0,1.5897043E0,-9.208136E-3,6.34328E-3,9.209628E-3,-3.49486E-3],"categories":[],"categories_nodes":[],"categories_segments":[],"categories_sizes":[],"default_left":[0,0,0,0,0,0,0],"id":13,"left_children":[1,3,5,-1,-1,-1,-1],"loss_changes":[2.3791747E2,3.6917847E1,2.9047356E1,0E0,0E0,0E0,0E0],"parents":[2147483647,0,0,1,1,2,2],"right_children":[2,4,6,-1,-1,-1,-1],"split_conditions":[1.9014499E-1,2.4906342E1,1E0,-9.208136E-3,6.34328E-3,9.209628E-3,-3.49486E-3],"split_indices":[3,17,12,0,0,0,0],"split_type":[0,0,0,0,0,0,0],"sum_hessian":[9.267675E1,4.558713E1,4.708962E1,4.209356E1,3.4935715E0,4.2591106E1,4.498513E0],"tree_param":{"num_deleted":"0","num_feature":"18","num_nodes":"7","size_leaf_vector":"1"}},{"base_weights":[1.4254456E-2,-9.148548E-3,1.3177367E0,9.101535E-3,-5.793789E-3],"categories":[],"categories_nodes":[],"categories_segments":[],"categories_sizes":[],"default_left":[0,0,0,0,0],"id":14,"left_children":[1,-1,3,-1,-1],"loss_changes":[2.3403629E2,0E0,7.310063E1,0E0,0E0],"parents":[2147483647,0,0,2,2],"right_children":[2,-1,4,-1,-1],"split_conditions":[3.005646E-1,-9.148548E-3,1E0,9.101535E-3,-5.793789E-3],"split_indices":[2,0,12,0,0],"split_type":[0,0,0,0,0],"sum_hessian":[9.536696E1,3.9328045E1,5.6038918E1,4.680538E1,9.233536E0],"tree_param":{"num_deleted":"0","num_feature":"18","num_nodes":"5","size_leaf_vector":"1"}},{"base_weights":[-4.875437E-2,-1.5873718E0,1.5715244E0,-9.146111E-3,6.29073E-3,9.126821E-3,-3.4512572E-3],"categories":[],"categories_nodes":[],"categories_segments":[],"categories_sizes":[],"default_left":[0,0,0,0,0,0,0],"id":15,"left_children":[1,3,5,-1,-1,-1,-1],"loss_changes":[2.4197223E2,3.6552208E1,2.8411133E1,0E0,0E0,0E0,0E0],"parents":[2147483647,0,0,1,1,2,2],"right_children":[2,4,6,-1,-1,-1,-1],"split_conditions":[1.9014499E-1,2.4906342E1,1E0,-9.146111E-3,6.29073E-3,9.126821E-3,-3.4512572E-3],"split_indices":[3,17,12,0,0,0,0],"split_type":[0,0,0,0,0,0,0],"sum_hessian":[9.506045E1,4.8769356E1,4.6291092E1,4.5278164E1,3.491193E0,4.179354E1,4.497549E0],"tree_param":{"num_deleted":"0","num_feature":"18","num_nodes":"7","size_leaf_vector":"1"}},{"base_weights":[-2.8659498E-2,-1.5762041E0,1.5348177E0,-8.905714E-3,5.0369264E-3,-2.324468E-3,9.004105E-3],"categories":[],"categories_nodes":[],"categories_segments":[],"categories_sizes":[],"default_left":[0,0,0,0,0,0,0],"id":16,"left_children":[1,3,5,-1,-1,-1,-1],"loss_changes":[2.3591609E2,2.7734802E1,2.664199E1,0E0,0E0,0E0,0E0],"parents":[2147483647,0,0,1,1,2,2],"right_children":[2,4,6,-1,-1,-1,-1],"split_conditions":[1.9014499E-1,6.429091E-1,-9.813628E-1,-8.905714E-3,5.0369264E-3,-2.324468E-3,9.004105E-3],"split_indices":[3,2,6,0,0,0,0],"split_type":[0,0,0,0,0,0,0],"sum_hessian":[9.550424E1,4.7992584E1,4.7511658E1,4.4753204E1,3.2393796E0,5.4902625E0,4.2021393E1],"tree_param":{"num_deleted":"0","num_feature":"18","num_nodes":"7","size_leaf_vector":"1"}},{"base_weights":[2.3701152E-2,-1.5679312E0,1.5595398E0,-9.066761E-3,6.2664673E-3,9.063302E-3,-2.6122634E-3],"categories":[],"categories_nodes":[],"categories_segments":[],"categories_sizes":[],"default_left":[0,0,0,0,0,0,0],"id":17,"left_children":[1,3,5,-1,-1,-1,-1],"loss_changes":[2.424547E2,3.600216E1,2.7543968E1,0E0,0E0,0E0,0E0],"parents":[2147483647,0,0,1,1,2,2],"right_children":[2,4,6,-1,-1,-1,-1],"split_conditions":[1.9014499E-1,2.4906342E1,1E0,-9.066761E-3,6.2664673E-3,9.063302E-3,-2.6122634E-3],"split_indices":[3,17,12,0,0,0,0],"split_type":[0,0,0,0,0,0,0],"sum_hessian":[9.718383E1,4.771478E1,4.946905E1,4.4224865E1,3.4899135E0,4.422207E1,5.246986E0],"tree_param":{"num_deleted":"0","num_feature":"18","num_nodes":"7","size_leaf_vector":"1"}},{"base_weights":[2.450606E-2,-8.988241E-3,1.3233505E0,9.038932E-3,-5.5070953E-3],"categories":[],"categories_nodes":[],"categories_segments":[],"categories_sizes":[],"default_left":[0,0,0,0,0],"id":18,"left_children":[1,-1,3,-1,-1],"loss_changes":[2.2164394E2,0E0,6.620452E1,0E0,0E0],"parents":[2147483647,0,0,2,2],"right_children":[2,-1,4,-1,-1],"split_conditions":[3.005646E-1,-8.988241E-3,1E0,9.038932E-3,-5.5070953E-3],"split_indices":[2,0,12,0,0],"split_type":[0,0,0,0,0],"sum_hessian":[9.164607E1,3.7979893E1,5.366618E1,4.494186E1,8.72432E0],"tree_param":{"num_deleted":"0","num_feature":"18","num_nodes":"5","size_leaf_vector":"1"}},{"base_weights":[8.2533136E-2,-1.5148475E0,1.556938E0,-8.977804E-3,6.380211E-3,-3.9549363E-3,8.909836E-3],"categories":[],"categories_nodes":[],"categories_segments":[],"categories_sizes":[],"default_left":[0,0,0,0,0,0,0],"id":19,"left_children":[1,3,5,-1,-1,-1,-1],"loss_changes":[2.227561E2,3.7877823E1,2.7381271E1,0E0,0E0,0E0,0E0],"parents":[2147483647,0,0,1,1,2,2],"right_children":[2,4,6,-1,-1,-1,-1],"split_conditions":[1.9014499E-1,2.4906342E1,-9.813628E-1,-8.977804E-3,6.380211E-3,-3.9549363E-3,8.909836E-3],"split_indices":[3,17,6,0,0,0,0],"split_type":[0,0,0,0,0,0,0],"sum_hessian":[9.257969E1,4.442351E1,4.8156178E1,4.0687695E1,3.735817E0,3.9917512E0,4.4164425E1],"tree_param":{"num_deleted":"0","num_feature":"18","num_nodes":"7","size_leaf_vector":"1"}},{"base_weights":[1.8660527E-2,-8.92285E-3,1.2893744E0,8.882586E-3,-5.6543336E-3],"categories":[],"categories_nodes":[],"categories_segments":[],"categories_sizes":[],"default_left":[0,0,0,0,0],"id":20,"left_children":[1,-1,3,-1,-1],"loss_changes":[2.2394911E2,0E0,6.9594894E1,0E0,0E0],"parents":[2147483647,0,0,2,2],"right_children":[2,-1,4,-1,-1],"split_conditions":[3.005646E-1,-8.92285E-3,1E0,8.882586E-3,-5.6543336E-3],"split_indices":[2,0,12,0,0],"split_type":[0,0,0,0,0],"sum_hessian":[9.5730865E1,3.940627E1,5.6324596E1,4.7108612E1,9.215982E0],"tree_param":{"num_deleted":"0","num_feature":"18","num_nodes":"5","size_leaf_vector":"1"}},{"base_weights":[5.7188715E-3,-1.4685946E0,1.536815E0,-8.9101605E-3,7.4639097E-3,-3.249973E-3,8.912594E-3],"categories":[],"categories_nodes":[],"categories_segments":[],"categories_sizes":[],"default_left":[0,0,0,0,0,0,0],"id":21,"left_children":[1,3,5,-1,-1,-1,-1],"loss_changes":[2.05343E2,4.5678154E1,2.513475E1,0E0,0E0,0E0,0E0],"parents":[2147483647,0,0,1,1,2,2],"right_children":[2,4,6,-1,-1,-1,-1],"split_conditions":[1.9014499E-1,2.4906342E1,-9.813628E-1,-8.9101605E-3,7.4639097E-3,-3.249973E-3,8.912594E-3],"split_indices":[3,17,6,0,0,0,0],"split_type":[0,0,0,0,0,0,0],"sum_hessian":[8.896794E1,4.5345226E1,4.362272E1,4.1365288E1,3.979938E0,4.2400503E0,3.9382668E1],"tree_param":{"num_deleted":"0","num_feature":"18","num_nodes":"7","size_leaf_vector":"1"}},{"base_weights":[1.3749654E-2,-1.5367209E0,1.555087E0,-8.872479E-3,5.949903E-3,8.869758E-3,-4.19631E-3],"categories":[],"categories_nodes":[],"categories_segments":[],"categories_sizes":[],"default_left":[0,0,0,0,0,0,0],"id":22,"left_children":[1,3,5,-1,-1,-1,-1],"loss_changes":[2.1720447E2,3.149076E1,2.5371277E1,0E0,0E0,0E0,0E0],"parents":[2147483647,0,0,1,1,2,2],"right_children":[2,4,6,-1,-1,-1,-1],"split_conditions":[1.9014499E-1,2.4906342E1,1E0,-8.872479E-3,5.949903E-3,8.869758E-3,-4.19631E-3],"split_indices":[3,17,12,0,0,0,0],"split_type":[0,0,0,0,0,0,0],"sum_hessian":[8.888824E1,4.4314323E1,4.4573914E1,4.108116E1,3.2331614E0,4.107812E1,3.4957926E0],"tree_param":{"num_deleted":"0","num_feature":"18","num_nodes":"7","size_leaf_vector":"1"}},{"base_weights":[2.3633141E-2,-1.540567E0,1.5157408E0,-8.8447165E-3,5.9291427E-3,8.8423025E-3,-2.5428596E-3],"categories":[],"categories_nodes":[],"categories_segments":[],"categories_sizes":[],"default_left":[0,0,0,0,0,0,0],"id":23,"left_children":[1,3,5,-1,-1,-1,-1],"loss_changes":[2.2468257E2,3.1365387E1,2.6100426E1,0E0,0E0,0E0,0E0],"parents":[2147483647,0,0,1,1,2,2],"right_children":[2,4,6,-1,-1,-1,-1],"split_conditions":[1.9014499E-1,2.4481913E1,1E0,-8.8447165E-3,5.9291427E-3,8.8423025E-3,-2.5428596E-3],"split_indices":[3,17,12,0,0,0,0],"split_type":[0,0,0,0,0,0,0],"sum_hessian":[9.426639E1,4.6005554E1,4.8260834E1,4.2773792E1,3.2317643E0,4.3016895E1,5.2439375E0],"tree_param":{"num_deleted":"0","num_feature":"18","num_nodes":"7","size_leaf_vector":"1"}},{"base_weights":[-1.4632216E-2,-1.5440283E0,1.5220951E0,-8.810321E-3,1.6227697E-3,8.8092E-3,-4.005927E-3],"categories":[],"categories_nodes":[],"categories_segments":[],"categories_sizes":[],"default_left":[0,0,0,0,0,0,0],"id":24,"left_children":[1,3,5,-1,-1,-1,-1],"loss_changes":[2.2950626E2,2.0509949E1,2.85448E1,0E0,0E0,0E0,0E0],"parents":[2147483647,0,0,1,1,2,2],"right_children":[2,4,6,-1,-1,-1,-1],"split_conditions":[1.9014499E-1,5.8110565E-1,1E0,-8.810321E-3,1.6227697E-3,8.8092E-3,-4.005927E-3],"split_indices":[3,9,12,0,0,0,0],"split_type":[0,0,0,0,0,0,0],"sum_hessian":[9.565128E1,4.7937614E1,4.771367E1,4.297954E1,4.958073E0,4.3469597E1,4.24407E0],"tree_param":{"num_deleted":"0","num_feature":"18","num_nodes":"7","size_leaf_vector":"1"}},{"base_weights":[3.9742235E-2,-1.5260837E0,1.5717614E0,-8.775161E-3,6.9238627E-3,-2.1722654E-3,8.694983E-3],"categories":[],"categories_nodes":[],"categories_segments":[],"categories_sizes":[],"default_left":[0,0,0,0,0,0,0],"id":25,"left_children":[1,3,5,-1,-1,-1,-1],"loss_changes":[2.2751907E2,3.3697777E1,1.6835403E1,0E0,0E0,0E0,0E0],"parents":[2147483647,0,0,1,1,2,2],"right_children":[2,4,6,-1,-1,-1,-1],"split_conditions":[1.8338788E-1,2.4906342E1,-9.813628E-1,-8.775161E-3,6.9238627E-3,-2.1722654E-3,8.694983E-3],"split_indices":[3,17,6,0,0,0,0],"split_type":[0,0,0,0,0,0,0],"sum_hessian":[9.284416E1,4.5917393E1,4.692677E1,4.2937305E1,2.9800882E0,3.487815E0,4.3438953E1],"tree_param":{"num_deleted":"0","num_feature":"18","num_nodes":"7","size_leaf_vector":"1"}},{"base_weights":[-1.9227117E-2,-1.4773318E0,1.4840276E0,-8.7381E-3,2.843789E-3,8.73257E-3,-3.6207966E-3],"categories":[],"categories_nodes":[],"categories_segments":[],"categories_sizes":[],"default_left":[0,0,0,0,0,0,0],"id":26,"left_children":[1,3,5,-1,-1,-1,-1],"loss_changes":[2.1098102E2,2.8012207E1,2.8738693E1,0E0,0E0,0E0,0E0],"parents":[2147483647,0,0,1,1,2,2],"right_children":[2,4,6,-1,-1,-1,-1],"split_conditions":[1.9014499E-1,5.8110565E-1,1E0,-8.7381E-3,2.843789E-3,8.73257E-3,-3.6207966E-3],"split_indices":[3,9,12,0,0,0,0],"split_type":[0,0,0,0,0,0,0],"sum_hessian":[9.425451E1,4.785453E1,4.6399982E1,4.239944E1,5.4550886E0,4.165727E1,4.742713E0],"tree_param":{"num_deleted":"0","num_feature":"18","num_nodes":"7","size_leaf_vector":"1"}},{"base_weights":[-1.1552455E-2,-1.4915415E0,1.5378063E0,-8.432444E-3,4.886759E-3,-1.3319808E-3,8.7332325E-3],"categories":[],"categories_nodes":[],"categories_segments":[],"categories_sizes":[],"default_left":[0,0,0,0,0,0,0],"id":27,"left_children":[1,3,5,-1,-1,-1,-1],"loss_changes":[2.1995105E2,2.5258667E1,1.812397E1,0E0,0E0,0E0,0E0],"parents":[2147483647,0,0,1,1,2,2],"right_children":[2,4,6,-1,-1,-1,-1],"split_conditions":[1.9014499E-1,6.429091E-1,-9.813628E-1,-8.432444E-3,4.886759E-3,-1.3319808E-3,8.7332325E-3],"split_indices":[3,2,6,0,0,0,0],"split_type":[0,0,0,0,0,0,0],"sum_hessian":[9.392112E1,4.8055004E1,4.586611E1,4.4831917E1,3.2230873E0,4.7297244E0,4.113639E1],"tree_param":{"num_deleted":"0","num_feature":"18","num_nodes":"7","size_leaf_vector":"1"}},{"base_weights":[-4.507008E-3,-1.4834492E0,1.4966185E0,-8.687986E-3,6.208084E-3,8.672529E-3,-2.7409892E-3],"categories":[],"categories_nodes":[],"categories_segments":[],"categories_sizes":[],"default_left":[0,0,0,0,0,0,0],"id":28,"left_children":[1,3,5,-1,-1,-1,-1],"loss_changes":[2.1385619E2,3.5761696E1,2.4205933E1,0E0,0E0,0E0,0E0],"parents":[2147483647,0,0,1,1,2,2],"right_children":[2,4,6,-1,-1,-1,-1],"split_conditions":[1.9014499E-1,2.4906342E1,1E0,-8.687986E-3,6.208084E-3,8.672529E-3,-2.7409892E-3],"split_indices":[3,17,12,0,0,0,0],"split_type":[0,0,0,0,0,0,0],"sum_hessian":[9.43282E1,4.7521114E1,4.6807083E1,4.3798683E1,3.722433E0,4.206512E1,4.741964E0],"tree_param":{"num_deleted":"0","num_feature":"18","num_nodes":"7","size_leaf_vector":"1"}},{"base_weights":[6.2451005E-2,-1.4455684E0,1.5147351E0,-8.6456025E-3,7.2296686E-3,8.64312E-3,-1.8937312E-3],"categories":[],"categories_nodes":[],"categories_segments":[],"categories_sizes":[],"default_left":[0,0,0,0,0,0,0],"id":29,"left_children":[1,3,5,-1,-1,-1,-1],"loss_changes":[2.0859389E2,4.0827812E1,2.0296234E1,0E0,0E0,0E0,0E0],"parents":[2147483647,0,0,1,1,2,2],"right_children":[2,4,6,-1,-1,-1,-1],"split_conditions":[1.9014499E-1,2.4809063E1,1E0,-8.6456025E-3,7.2296686E-3,8.64312E-3,-1.8937312E-3],"split_indices":[3,17,12,0,0,0,0],"split_type":[0,0,0,0,0,0,0],"sum_hessian":[9.3245384E1,4.574717E1,4.7498215E1,4.202776E1,3.7194104E0,4.2755585E1,4.7426333E0],"tree_param":{"num_deleted":"0","num_feature":"18","num_nodes":"7","size_leaf_vector":"1"}},{"base_weights":[-2.2607954E-2,-1.4545757E0,1.5096995E0,-8.619896E-3,6.3146926E-3,8.6003365E-3,-2.7053517E-3],"categories":[],"categories_nodes":[],"categories_segments":[],"categories_sizes":[],"default_left":[0,0,0,0,0,0,0],"id":30,"left_children":[1,3,5,-1,-1,-1,-1],"loss_changes":[2.0659654E2,3.780391E1,2.055629E1,0E0,0E0,0E0,0E0],"parents":[2147483647,0,0,1,1,2,2],"right_children":[2,4,6,-1,-1,-1,-1],"split_conditions":[1.9014499E-1,2.4906342E1,1E0,-8.619896E-3,6.3146926E-3,8.6003365E-3,-2.7053517E-3],"split_indices":[3,17,12,0,0,0,0],"split_type":[0,0,0,0,0,0,0],"sum_hessian":[9.2154305E1,4.766307E1,4.449123E1,4.369675E1,3.9663184E0,4.049819E1,3.9930413E0],"tree_param":{"num_deleted":"0","num_feature":"18","num_nodes":"7","size_leaf_vector":"1"}},{"base_weights":[-1.8904878E-2,-1.4595249E0,1.4514436E0,-8.582837E-3,6.147277E-3,8.5711535E-3,-3.555997E-3],"categories":[],"categories_nodes":[],"categories_segments":[],"categories_sizes":[],"default_left":[0,0,0,0,0,0,0],"id":31,"left_children":[1,3,5,-1,-1,-1,-1],"loss_changes":[1.9872397E2,3.4859283E1,2.7609306E1,0E0,0E0,0E0,0E0],"parents":[2147483647,0,0,1,1,2,2],"right_children":[2,4,6,-1,-1,-1,-1],"split_conditions":[1.7153311E-1,2.4906342E1,1E0,-8.582837E-3,6.147277E-3,8.5711535E-3,-3.555997E-3],"split_indices":[3,17,12,0,0,0,0],"split_type":[0,0,0,0,0,0,0],"sum_hessian":[9.181669E1,4.6380905E1,4.5435787E1,4.2664215E1,3.7166896E0,4.0697853E1,4.737933E0],"tree_param":{"num_deleted":"0","num_feature":"18","num_nodes":"7","size_leaf_vector":"1"}},{"base_weights":[2.3702975E-2,-1.4750382E0,1.4831343E0,-8.552487E-3,5.962734E-3,-2.4622183E-3,8.585291E-3],"categories":[],"categories_nodes":[],"categories_segments":[],"categories_sizes":[],"default_left":[0,0,0,0,0,0,0],"id":32,"left_children":[1,3,5,-1,-1,-1,-1],"loss_changes":[2.1194142E2,3.2070976E1,2.352884E1,0E0,0E0,0E0,0E0],"parents":[2147483647,0,0,1,1,2,2],"right_children":[2,4,6,-1,-1,-1,-1],"split_conditions":[1.8338788E-1,2.4906342E1,-9.813628E-1,-8.552487E-3,5.962734E-3,-2.4622183E-3,8.585291E-3],"split_indices":[3,17,6,0,0,0,0],"split_type":[0,0,0,0,0,0,0],"sum_hessian":[9.489577E1,4.681209E1,4.808367E1,4.3344955E1,3.4671366E0,4.9737024E0,4.310997E1],"tree_param":{"num_deleted":"0","num_feature":"18","num_nodes":"7","size_leaf_vector":"1"}},{"base_weights":[-7.457419E-3,-8.482238E-3,1.2023855E0,8.450183E-3,-5.3475327E-3],"categories":[],"categories_nodes":[],"categories_segments":[],"categories_sizes":[],"default_left":[0,0,0,0,0],"id":33,"left_children":[1,-1,3,-1,-1],"loss_changes":[1.8924939E2,0E0,6.1594704E1,0E0,0E0],"parents":[2147483647,0,0,2,2],"right_children":[2,-1,4,-1,-1],"split_conditions":[3.005646E-1,-8.482238E-3,1E0,8.450183E-3,-5.3475327E-3],"split_indices":[2,0,12,0,0],"split_type":[0,0,0,0,0],"sum_hessian":[9.0616135E1,3.7651245E1,5.2964886E1,4.381608E1,9.1488085E0],"tree_param":{"num_deleted":"0","num_feature":"18","num_nodes":"5","size_leaf_vector":"1"}},{"base_weights":[8.023206E-3,-8.451663E-3,1.26206E0,8.517575E-3,-4.9320296E-3],"categories":[],"categories_nodes":[],"categories_segments":[],"categories_sizes":[],"default_left":[0,0,0,0,0],"id":34,"left_children":[1,-1,3,-1,-1],"loss_changes":[1.9234236E2,0E0,5.32427E1,0E0,0E0],"parents":[2147483647,0,0,2,2],"right_children":[2,-1,4,-1,-1],"split_conditions":[3.005646E-1,-8.451663E-3,1E0,8.517575E-3,-4.9320296E-3],"split_indices":[2,0,12,0,0],"split_type":[0,0,0,0,0],"sum_hessian":[8.830837E1,3.7361443E1,5.0946926E1,4.2788387E1,8.158539E0],"tree_param":{"num_deleted":"0","num_feature":"18","num_nodes":"5","size_leaf_vector":"1"}},{"base_weights":[-7.8384265E-2,-1.5975932E0,1.2674459E0,-8.446048E-3,-6.7479524E-4,-3.5538317E-3,8.284866E-3],"categories":[],"categories_nodes":[],"categories_segments":[],"categories_sizes":[],"default_left":[0,0,0,0,0,0,0],"id":35,"left_children":[1,3,5,-1,-1,-1,-1],"loss_changes":[1.9241614E2,5.69281E0,3.9655846E1,0E0,0E0,0E0,0E0],"parents":[2147483647,0,0,1,1,2,2],"right_children":[2,4,6,-1,-1,-1,-1],"split_conditions":[4.574772E-1,5.2681017E-1,-9.813628E-1,-8.446048E-3,-6.7479524E-4,-3.5538317E-3,8.284866E-3],"split_indices":[2,7,6,0,0,0,0],"split_type":[0,0,0,0,0,0,0],"sum_hessian":[9.211921E1,4.318442E1,4.893479E1,4.0493103E1,2.6913178E0,7.9148035E0,4.101999E1],"tree_param":{"num_deleted":"0","num_feature":"18","num_nodes":"7","size_leaf_vector":"1"}},{"base_weights":[-2.0213662E-2,-1.4817948E0,1.4248209E0,-8.429111E-3,5.5002365E-3,8.423621E-3,-4.1145682E-3],"categories":[],"categories_nodes":[],"categories_segments":[],"categories_sizes":[],"default_left":[0,0,0,0,0,0,0],"id":36,"left_children":[1,3,5,-1,-1,-1,-1],"loss_changes":[1.9493114E2,2.6021584E1,2.8503227E1,0E0,0E0,0E0,0E0],"parents":[2147483647,0,0,1,1,2,2],"right_children":[2,4,6,-1,-1,-1,-1],"split_conditions":[1.7153311E-1,2.4809063E1,1E0,-8.429111E-3,5.5002365E-3,8.423621E-3,-4.1145682E-3],"split_indices":[3,17,12,0,0,0,0],"split_type":[0,0,0,0,0,0,0],"sum_hessian":[9.029575E1,4.4878212E1,4.5417538E1,4.191312E1,2.965093E0,4.093477E1,4.4827685E0],"tree_param":{"num_deleted":"0","num_feature":"18","num_nodes":"7","size_leaf_vector":"1"}},{"base_weights":[1.9090472E-2,-1.4473475E0,1.4992836E0,-8.117746E-3,4.47059E-3,8.397099E-3,-2.2736264E-3],"categories":[],"categories_nodes":[],"categories_segments":[],"categories_sizes":[],"default_left":[0,0,0,0,0,0,0],"id":37,"left_children":[1,3,5,-1,-1,-1,-1],"loss_changes":[2.0428882E2,2.0959702E1,1.7247932E1,0E0,0E0,0E0,0E0],"parents":[2147483647,0,0,1,1,2,2],"right_children":[2,4,6,-1,-1,-1,-1],"split_conditions":[1.8338788E-1,6.372455E-1,1E0,-8.117746E-3,4.47059E-3,8.397099E-3,-2.2736264E-3],"split_indices":[3,2,12,0,0,0,0],"split_type":[0,0,0,0,0,0,0],"sum_hessian":[9.211609E1,4.6284195E1,4.5831898E1,4.3330097E1,2.954099E0,4.209204E1,3.7398562E0],"tree_param":{"num_deleted":"0","num_feature":"18","num_nodes":"7","size_leaf_vector":"1"}},{"base_weights":[3.4432385E-2,-8.3367145E-3,1.2380524E0,8.308656E-3,-4.910454E-3],"categories":[],"categories_nodes":[],"categories_segments":[],"categories_sizes":[],"default_left":[0,0,0,0,0],"id":38,"left_children":[1,-1,3,-1,-1],"loss_changes":[1.9105226E2,0E0,5.3006134E1,0E0,0E0],"parents":[2147483647,0,0,2,2],"right_children":[2,-1,4,-1,-1],"split_conditions":[3.005646E-1,-8.3367145E-3,1E0,8.308656E-3,-4.910454E-3],"split_indices":[2,0,12,0,0],"split_type":[0,0,0,0,0],"sum_hessian":[9.12662E1,3.76493E1,5.3616898E1,4.5235874E1,8.381022E0],"tree_param":{"num_deleted":"0","num_feature":"18","num_nodes":"5","size_leaf_vector":"1"}},{"base_weights":[1.5988054E-2,-1.4531163E0,1.4207481E0,-8.340152E-3,6.51624E-3,8.33243E-3,-4.554713E-3],"categories":[],"categories_nodes":[],"categories_segments":[],"categories_sizes":[],"default_left":[0,0,0,0,0,0,0],"id":39,"left_children":[1,3,5,-1,-1,-1,-1],"loss_changes":[1.8373415E2,2.7956406E1,2.7592201E1,0E0,0E0,0E0,0E0],"parents":[2147483647,0,0,1,1,2,2],"right_children":[2,4,6,-1,-1,-1,-1],"split_conditions":[1.9014499E-1,2.4809063E1,1E0,-8.340152E-3,6.51624E-3,8.33243E-3,-4.554713E-3],"split_indices":[3,17,12,0,0,0,0],"split_type":[0,0,0,0,0,0,0],"sum_hessian":[8.7029366E1,4.2523582E1,4.450578E1,3.9814117E1,2.7094667E0,4.0520584E1,3.9851937E0],"tree_param":{"num_deleted":"0","num_feature":"18","num_nodes":"7","size_leaf_vector":"1"}},{"base_weights":[5.5886615E-2,-1.4434878E0,1.4915195E0,-8.223259E-3,4.685846E-3,8.311548E-3,-1.0423522E-3],"categories":[],"categories_nodes":[],"categories_segments":[],"categories_sizes":[],"default_left":[0,0,0,0,0,0,0],"id":40,"left_children":[1,3,5,-1,-1,-1,-1],"loss_changes":[2.0079826E2,2.340223E1,1.4177185E1,0E0,0E0,0E0,0E0],"parents":[2147483647,0,0,1,1,2,2],"right_children":[2,4,6,-1,-1,-1,-1],"split_conditions":[1.9014499E-1,6.429091E-1,1E0,-8.223259E-3,4.685846E-3,8.311548E-3,-1.0423522E-3],"split_indices":[3,2,12,0,0,0,0],"split_type":[0,0,0,0,0,0,0],"sum_hessian":[9.1283646E1,4.464791E1,4.663573E1,4.1454216E1,3.1936953E0,4.2398327E1,4.2374034E0],"tree_param":{"num_deleted":"0","num_feature":"18","num_nodes":"7","size_leaf_vector":"1"}},{"base_weights":[4.6611987E-2,-1.4251119E0,1.4380376E0,-8.279254E-3,5.61399E-3,8.274242E-3,-2.30347E-3],"categories":[],"categories_nodes":[],"categories_segments":[],"categories_sizes":[],"default_left":[0,0,0,0,0,0,0],"id":41,"left_children":[1,3,5,-1,-1,-1,-1],"loss_changes":[1.8287001E2,2.7382446E1,1.96521E1,0E0,0E0,0E0,0E0],"parents":[2147483647,0,0,1,1,2,2],"right_children":[2,4,6,-1,-1,-1,-1],"split_conditions":[1.8338788E-1,2.4906342E1,1E0,-8.279254E-3,5.61399E-3,8.274242E-3,-2.30347E-3],"split_indices":[3,17,12,0,0,0,0],"split_type":[0,0,0,0,0,0,0],"sum_hessian":[8.73002E1,4.241415E1,4.4886055E1,3.9213123E1,3.2010274E0,4.04012E1,4.4848533E0],"tree_param":{"num_deleted":"0","num_feature":"18","num_nodes":"7","size_leaf_vector":"1"}},{"base_weights":[-2.8741533E-2,-1.4069226E0,1.3920277E0,-8.265256E-3,5.9472565E-3,8.247216E-3,-4.072316E-3],"categories":[],"categories_nodes":[],"categories_segments":[],"categories_sizes":[],"default_left":[0,0,0,0,0,0,0],"id":42,"left_children":[1,3,5,-1,-1,-1,-1],"loss_changes":[1.8314174E2,3.2299576E1,2.7507248E1,0E0,0E0,0E0,0E0],"parents":[2147483647,0,0,1,1,2,2],"right_children":[2,4,6,-1,-1,-1,-1],"split_conditions":[1.9014499E-1,2.4906342E1,1E0,-8.265256E-3,5.9472565E-3,8.247216E-3,-4.072316E-3],"split_indices":[3,17,12,0,0,0,0],"split_type":[0,0,0,0,0,0,0],"sum_hessian":[9.153121E1,4.646691E1,4.5064297E1,4.2775265E1,3.6916468E0,4.058231E1,4.481988E0],"tree_param":{"num_deleted":"0","num_feature":"18","num_nodes":"7","size_leaf_vector":"1"}},{"base_weights":[5.406522E-2,-1.4054044E0,1.4362181E0,-8.231741E-3,5.757333E-3,8.227146E-3,-2.2800027E-3],"categories":[],"categories_nodes":[],"categories_segments":[],"categories_sizes":[],"default_left":[0,0,0,0,0,0,0],"id":43,"left_children":[1,3,5,-1,-1,-1,-1],"loss_changes":[1.8551172E2,2.9464424E1,1.9441093E1,0E0,0E0,0E0,0E0],"parents":[2147483647,0,0,1,1,2,2],"right_children":[2,4,6,-1,-1,-1,-1],"split_conditions":[1.9014499E-1,2.4906342E1,1E0,-8.231741E-3,5.757333E-3,8.227146E-3,-2.2800027E-3],"split_indices":[3,17,12,0,0,0,0],"split_type":[0,0,0,0,0,0,0],"sum_hessian":[8.996387E1,4.374985E1,4.6214016E1,4.0307617E1,3.4422355E0,4.1730545E1,4.483472E0],"tree_param":{"num_deleted":"0","num_feature":"18","num_nodes":"7","size_leaf_vector":"1"}},{"base_weights":[-7.279822E-2,-1.4007801E0,1.3876338E0,-8.030576E-3,4.8656375E-3,8.177821E-3,-3.158101E-3],"categories":[],"categories_nodes":[],"categories_segments":[],"categories_sizes":[],"default_left":[0,0,0,0,0,0,0],"id":44,"left_children":[1,3,5,-1,-1,-1,-1],"loss_changes":[1.7715779E2,2.4870155E1,2.2824814E1,0E0,0E0,0E0,0E0],"parents":[2147483647,0,0,1,1,2,2],"right_children":[2,4,6,-1,-1,-1,-1],"split_conditions":[1.9014499E-1,6.429091E-1,1E0,-8.030576E-3,4.8656375E-3,8.177821E-3,-3.158101E-3],"split_indices":[3,2,12,0,0,0,0],"split_type":[0,0,0,0,0,0,0],"sum_hessian":[8.9343185E1,4.6814896E1,4.2528294E1,4.3385612E1,3.429281E0,3.8046803E1,4.4814916E0],"tree_param":{"num_deleted":"0","num_feature":"18","num_nodes":"7","size_leaf_vector":"1"}},{"base_weights":[6.4721756E-2,-1.3787594E0,1.4260335E0,-8.174608E-3,5.9013735E-3,8.174645E-3,-3.4851755E-3],"categories":[],"categories_nodes":[],"categories_segments":[],"categories_sizes":[],"default_left":[0,0,0,0,0,0,0],"id":45,"left_children":[1,3,5,-1,-1,-1,-1],"loss_changes":[1.825112E2,3.1495377E1,2.2328667E1,0E0,0E0,0E0,0E0],"parents":[2147483647,0,0,1,1,2,2],"right_children":[2,4,6,-1,-1,-1,-1],"split_conditions":[1.9014499E-1,2.4906342E1,1E0,-8.174608E-3,5.9013735E-3,8.174645E-3,-3.4851755E-3],"split_indices":[3,17,12,0,0,0,0],"split_type":[0,0,0,0,0,0,0],"sum_hessian":[9.087913E1,4.4102142E1,4.677698E1,4.0417427E1,3.6847148E0,4.2796062E1,3.9809184E0],"tree_param":{"num_deleted":"0","num_feature":"18","num_nodes":"7","size_leaf_vector":"1"}},{"base_weights":[-8.856297E-3,-8.11747E-3,1.17566E0,8.089321E-3,-5.0250473E-3],"categories":[],"categories_nodes":[],"categories_segments":[],"categories_sizes":[],"default_left":[0,0,0,0,0],"id":46,"left_children":[1,-1,3,-1,-1],"loss_changes":[1.7696329E2,0E0,5.3097054E1,0E0,0E0],"parents":[2147483647,0,0,2,2],"right_children":[2,-1,4,-1,-1],"split_conditions":[3.005646E-1,-8.11747E-3,1E0,8.089321E-3,-5.0250473E-3],"split_indices":[2,0,12,0,0],"split_type":[0,0,0,0,0],"sum_hessian":[9.052872E1,3.8152153E1,5.237656E1,4.3760693E1,8.615866E0],"tree_param":{"num_deleted":"0","num_feature":"18","num_nodes":"5","size_leaf_vector":"1"}},{"base_weights":[-5.412759E-2,-1.4265105E0,1.3739381E0,-8.142183E-3,5.510581E-3,-2.815081E-3,8.147166E-3],"categories":[],"categories_nodes":[],"categories_segments":[],"categories_sizes":[],"default_left":[0,0,0,0,0,0,0],"id":47,"left_children":[1,3,5,-1,-1,-1,-1],"loss_changes":[1.8669528E2,2.6588043E1,2.4029495E1,0E0,0E0,0E0,0E0],"parents":[2147483647,0,0,1,1,2,2],"right_children":[2,4,6,-1,-1,-1,-1],"split_conditions":[1.9014499E-1,2.4906342E1,-9.813628E-1,-8.142183E-3,5.510581E-3,-2.815081E-3,8.147166E-3],"split_indices":[3,17,6,0,0,0,0],"split_type":[0,0,0,0,0,0,0],"sum_hessian":[9.32598E1,4.7557625E1,4.570218E1,4.437038E1,3.1872435E0,5.1856008E0,4.051658E1],"tree_param":{"num_deleted":"0","num_feature":"18","num_nodes":"7","size_leaf_vector":"1"}},{"base_weights":[1.7546557E-2,-7.96022E-3,1.1689007E0,8.041571E-3,-5.0376146E-3],"categories":[],"categories_nodes":[],"categories_segments":[],"categories_sizes":[],"default_left":[0,0,0,0,0],"id":48,"left_children":[1,-1,3,-1,-1],"loss_changes":[1.7449933E2,0E0,5.4110138E1,0E0,0E0],"parents":[2147483647,0,0,2,2],"right_children":[2,-1,4,-1,-1],"split_conditions":[0E0,-7.96022E-3,1E0,8.041571E-3,-5.0376146E-3],"split_indices":[4,0,12,0,0],"split_type":[0,0,0,0,0],"sum_hessian":[9.215647E1,3.8270973E1,5.3885494E1,4.5050884E1,8.83461E0],"tree_param":{"num_deleted":"0","num_feature":"18","num_nodes":"5","size_leaf_vector":"1"}},{"base_weights":[-3.891587E-2,-1.4314028E0,1.3876998E0,-8.091152E-3,5.2767266E-3,8.065498E-3,-2.510647E-3],"categories":[],"categories_nodes":[],"categories_segments":[],"categories_sizes":[],"default_left":[0,0,0,0,0,0,0],"id":49,"left_children":[1,3,5,-1,-1,-1,-1],"loss_changes":[1.8727367E2,2.3865364E1,2.0651031E1,0E0,0E0,0E0,0E0],"parents":[2147483647,0,0,1,1,2,2],"right_children":[2,4,6,-1,-1,-1,-1],"split_conditions":[1.9014499E-1,2.4906342E1,1E0,-8.091152E-3,5.2767266E-3,8.065498E-3,-2.510647E-3],"split_indices":[3,17,12,0,0,0,0],"split_type":[0,0,0,0,0,0,0],"sum_hessian":[9.2271194E1,4.669243E1,4.5578766E1,4.3754448E1,2.9379807E0,4.0852695E1,4.7260723E0],"tree_param":{"num_deleted":"0","num_feature":"18","num_nodes":"7","size_leaf_vector":"1"}},{"base_weights":[2.1418069E-2,-1.361847E0,1.4106607E0,-8.052404E-3,5.7885097E-3,-2.968042E-3,8.08248E-3],"categories":[],"categories_nodes":[],"categories_segments":[],"categories_sizes":[],"default_left":[0,0,0,0,0,0,0],"id":50,"left_children":[1,3,5,-1,-1,-1,-1],"loss_changes":[1.7439972E2,3.0356628E1,1.9636192E1,0E0,0E0,0E0,0E0],"parents":[2147483647,0,0,1,1,2,2],"right_children":[2,4,6,-1,-1,-1,-1],"split_conditions":[1.9014499E-1,2.4906342E1,-9.813628E-1,-8.052404E-3,5.7885097E-3,-2.968042E-3,8.08248E-3],"split_indices":[3,17,6,0,0,0,0],"split_type":[0,0,0,0,0,0,0],"sum_hessian":[8.875356E1,4.448234E1,4.4271225E1,4.0815407E1,3.6669326E0,3.947691E0,4.0323532E1],"tree_param":{"num_deleted":"0","num_feature":"18","num_nodes":"7","size_leaf_vector":"1"}},{"base_weights":[-1.6907237E-2,-7.991576E-3,1.1485529E0,-3.7630587E-3,7.875043E-3],"categories":[],"categories_nodes":[],"categories_segments":[],"categories_sizes":[],"default_left":[0,0,0,0,0],"id":51,"left_children":[1,-1,3,-1,-1],"loss_changes":[1.7179892E2,0E0,4.4701187E1,0E0,0E0],"parents":[2147483647,0,0,2,2],"right_children":[2,-1,4,-1,-1],"split_conditions":[3.005646E-1,-7.991576E-3,-9.813628E-1,-3.7630587E-3,7.875043E-3],"split_indices":[2,0,6,0,0],"split_type":[0,0,0,0,0],"sum_hessian":[9.121754E1,3.8544827E1,5.2672714E1,9.510323E0,4.316239E1],"tree_param":{"num_deleted":"0","num_feature":"18","num_nodes":"5","size_leaf_vector":"1"}},{"base_weights":[2.2998018E-2,-1.377305E0,1.3690023E0,-7.98964E-3,6.4406698E-3,7.984893E-3,-3.038859E-3],"categories":[],"categories_nodes":[],"categories_segments":[],"categories_sizes":[],"default_left":[0,0,0,0,0,0,0],"id":52,"left_children":[1,3,5,-1,-1,-1,-1],"loss_changes":[1.6956274E2,2.799176E1,2.1638702E1,0E0,0E0,0E0,0E0],"parents":[2147483647,0,0,1,1,2,2],"right_children":[2,4,6,-1,-1,-1,-1],"split_conditions":[1.7153311E-1,2.4809063E1,1E0,-7.98964E-3,6.4406698E-3,7.984893E-3,-3.038859E-3],"split_indices":[3,17,12,0,0,0,0],"split_type":[0,0,0,0,0,0,0],"sum_hessian":[8.796221E1,4.3100136E1,4.4862076E1,4.017526E1,2.9248762E0,4.0395493E1,4.4665804E0],"tree_param":{"num_deleted":"0","num_feature":"18","num_nodes":"7","size_leaf_vector":"1"}},{"base_weights":[-7.0676296E-3,-1.439429E0,1.4079608E0,-7.981916E-3,5.9629814E-3,7.971345E-3,-2.4648965E-3],"categories":[],"categories_nodes":[],"categories_segments":[],"categories_sizes":[],"default_left":[0,0,0,0,0,0,0],"id":53,"left_children":[1,3,5,-1,-1,-1,-1],"loss_changes":[1.9018492E2,2.116652E1,1.7504074E1,0E0,0E0,0E0,0E0],"parents":[2147483647,0,0,1,1,2,2],"right_children":[2,4,6,-1,-1,-1,-1],"split_conditions":[1.8338788E-1,2.4809063E1,1E0,-7.981916E-3,5.9629814E-3,7.971345E-3,-2.4648965E-3],"split_indices":[3,17,12,0,0,0,0],"split_type":[0,0,0,0,0,0,0],"sum_hessian":[9.183367E1,4.5628754E1,4.6204918E1,4.343226E1,2.1964948E0,4.222758E1,3.977336E0],"tree_param":{"num_deleted":"0","num_feature":"18","num_nodes":"7","size_leaf_vector":"1"}},{"base_weights":[8.184327E-3,-1.3930631E0,1.349318E0,-7.953301E-3,6.273841E-3,7.944168E-3,-3.2833081E-3],"categories":[],"categories_nodes":[],"categories_segments":[],"categories_sizes":[],"default_left":[0,0,0,0,0,0,0],"id":54,"left_children":[1,3,5,-1,-1,-1,-1],"loss_changes":[1.7258174E2,2.5494987E1,2.3587097E1,0E0,0E0,0E0,0E0],"parents":[2147483647,0,0,1,1,2,2],"right_children":[2,4,6,-1,-1,-1,-1],"split_conditions":[1.5925953E-1,2.4906342E1,1E0,-7.953301E-3,6.273841E-3,7.944168E-3,-3.2833081E-3],"split_indices":[3,17,12,0,0,0,0],"split_type":[0,0,0,0,0,0,0],"sum_hessian":[8.983472E1,4.3913822E1,4.5920895E1,4.1235817E1,2.6780057E0,4.1208515E1,4.7123785E0],"tree_param":{"num_deleted":"0","num_feature":"18","num_nodes":"7","size_leaf_vector":"1"}},{"base_weights":[-1.8628478E-2,-1.3624462E0,1.3723396E0,-7.931049E-3,5.550118E-3,7.910417E-3,-1.6253205E-3],"categories":[],"categories_nodes":[],"categories_segments":[],"categories_sizes":[],"default_left":[0,0,0,0,0,0,0],"id":55,"left_children":[1,3,5,-1,-1,-1,-1],"loss_changes":[1.6924377E2,2.7235138E1,1.6356369E1,0E0,0E0,0E0,0E0],"parents":[2147483647,0,0,1,1,2,2],"right_children":[2,4,6,-1,-1,-1,-1],"split_conditions":[1.9014499E-1,2.4809063E1,1E0,-7.931049E-3,5.550118E-3,7.910417E-3,-1.6253205E-3],"split_indices":[3,17,12,0,0,0,0],"split_type":[0,0,0,0,0,0,0],"sum_hessian":[8.854278E1,4.50451E1,4.349768E1,4.1635456E1,3.4096444E0,3.8774364E1,4.7233143E0],"tree_param":{"num_deleted":"0","num_feature":"18","num_nodes":"7","size_leaf_vector":"1"}},{"base_weights":[-5.9288584E-2,-1.3688848E0,1.3456297E0,-7.6515833E-3,4.2438563E-3,-1.652692E-3,7.8000007E-3],"categories":[],"categories_nodes":[],"categories_segments":[],"categories_sizes":[],"default_left":[0,0,0,0,0,0,0],"id":56,"left_children":[1,3,5,-1,-1,-1,-1],"loss_changes":[1.7102336E2,1.851387E1,1.663697E1,0E0,0E0,0E0,0E0],"parents":[2147483647,0,0,1,1,2,2],"right_children":[2,4,6,-1,-1,-1,-1],"split_conditions":[1.7153311E-1,6.429091E-1,-9.813628E-1,-7.6515833E-3,4.2438563E-3,-1.652692E-3,7.8000007E-3],"split_indices":[3,2,6,0,0,0,0],"split_type":[0,0,0,0,0,0,0],"sum_hessian":[9.095259E1,4.7086502E1,4.3866093E1,4.4180378E1,2.906123E0,4.912584E0,3.8953506E1],"tree_param":{"num_deleted":"0","num_feature":"18","num_nodes":"7","size_leaf_vector":"1"}},{"base_weights":[1.0843253E-1,-7.814854E-3,1.1638755E0,7.830641E-3,-4.6481146E-3],"categories":[],"categories_nodes":[],"categories_segments":[],"categories_sizes":[],"default_left":[0,0,0,0,0],"id":57,"left_children":[1,-1,3,-1,-1],"loss_changes":[1.5460948E2,0E0,4.664528E1,0E0,0E0],"parents":[2147483647,0,0,2,2],"right_children":[2,-1,4,-1,-1],"split_conditions":[3.005646E-1,-7.814854E-3,1E0,7.830641E-3,-4.6481146E-3],"split_indices":[2,0,12,0,0],"split_type":[0,0,0,0,0],"sum_hessian":[8.561237E1,3.2950684E1,5.2661694E1,4.4385246E1,8.276445E0],"tree_param":{"num_deleted":"0","num_feature":"18","num_nodes":"5","size_leaf_vector":"1"}},{"base_weights":[-3.932873E-3,-1.3169746E0,1.3925148E0,-7.860919E-3,5.786471E-3,3.464769E-3,7.760666E-3],"categories":[],"categories_nodes":[],"categories_segments":[],"categories_sizes":[],"default_left":[0,0,0,0,0,0,0],"id":58,"left_children":[1,3,5,-1,-1,-1,-1],"loss_changes":[1.6386006E2,3.090226E1,3.7604065E0,0E0,0E0,0E0,0E0],"parents":[2147483647,0,0,1,1,2,2],"right_children":[2,4,6,-1,-1,-1,-1],"split_conditions":[1.9014499E-1,2.4906342E1,-9.7822595E-1,-7.860919E-3,5.786471E-3,3.464769E-3,7.760666E-3],"split_indices":[3,17,7,0,0,0,0],"split_type":[0,0,0,0,0,0,0],"sum_hessian":[8.736533E1,4.505668E1,4.2308655E1,4.1174328E1,3.8823528E0,8.852413E0,3.345624E1],"tree_param":{"num_deleted":"0","num_feature":"18","num_nodes":"7","size_leaf_vector":"1"}},{"base_weights":[1.9975603E-2,-1.3250456E0,1.3267044E0,-7.831382E-3,5.6283283E-3,1.6733193E-3,7.759236E-3],"categories":[],"categories_nodes":[],"categories_segments":[],"categories_sizes":[],"default_left":[0,0,0,0,0,0,0],"id":59,"left_children":[1,3,5,-1,-1,-1,-1],"loss_changes":[1.6137494E2,2.8515976E1,9.880684E0,0E0,0E0,0E0,0E0],"parents":[2147483647,0,0,1,1,2,2],"right_children":[2,4,6,-1,-1,-1,-1],"split_conditions":[1.9014499E-1,2.4481913E1,-9.7822595E-1,-7.831382E-3,5.6283283E-3,1.6733193E-3,7.759236E-3],"split_indices":[3,17,7,0,0,0,0],"split_type":[0,0,0,0,0,0,0],"sum_hessian":[8.981646E1,4.425283E1,4.5563633E1,4.0615788E1,3.6370428E0,8.887842E0,3.667579E1],"tree_param":{"num_deleted":"0","num_feature":"18","num_nodes":"7","size_leaf_vector":"1"}},{"base_weights":[3.3731014E-2,-1.3381491E0,1.3464072E0,-7.817196E-3,5.4802797E-3,7.806685E-3,-1.953556E-3],"categories":[],"categories_nodes":[],"categories_segments":[],"categories_sizes":[],"default_left":[0,0,0,0,0,0,0],"id":60,"left_children":[1,3,5,-1,-1,-1,-1],"loss_changes":[1.6554134E2,2.6370384E1,1.814415E1,0E0,0E0,0E0,0E0],"parents":[2147483647,0,0,1,1,2,2],"right_children":[2,4,6,-1,-1,-1,-1],"split_conditions":[1.9014499E-1,2.4906342E1,1E0,-7.817196E-3,5.4802797E-3,7.806685E-3,-1.953556E-3],"split_indices":[3,17,12,0,0,0,0],"split_type":[0,0,0,0,0,0,0],"sum_hessian":[8.9924324E1,4.39611E1,4.5963226E1,4.0564503E1,3.396597E0,4.0992504E1,4.9707203E0],"tree_param":{"num_deleted":"0","num_feature":"18","num_nodes":"7","size_leaf_vector":"1"}},{"base_weights":[1.4542091E-2,-1.3080643E0,1.3535951E0,-7.7926377E-3,5.753019E-3,7.785062E-3,-2.1735067E-3],"categories":[],"categories_nodes":[],"categories_segments":[],"categories_sizes":[],"default_left":[0,0,0,0,0,0,0],"id":61,"left_children":[1,3,5,-1,-1,-1,-1],"loss_changes":[1.6370876E2,3.0434036E1,1.7383842E1,0E0,0E0,0E0,0E0],"parents":[2147483647,0,0,1,1,2,2],"right_children":[2,4,6,-1,-1,-1,-1],"split_conditions":[1.9014499E-1,2.4809063E1,1E0,-7.7926377E-3,5.753019E-3,7.785062E-3,-2.1735067E-3],"split_indices":[3,17,12,0,0,0,0],"split_type":[0,0,0,0,0,0,0],"sum_hessian":[9.043676E1,4.550943E1,4.492733E1,4.1634277E1,3.8751516E0,4.0454945E1,4.472387E0],"tree_param":{"num_deleted":"0","num_feature":"18","num_nodes":"7","size_leaf_vector":"1"}},{"base_weights":[-5.4392625E-2,-7.663278E-3,1.0777975E0,7.7137277E-3,-5.357821E-3],"categories":[],"categories_nodes":[],"categories_segments":[],"categories_sizes":[],"default_left":[0,0,0,0,0],"id":62,"left_children":[1,-1,3,-1,-1],"loss_changes":[1.5596175E2,0E0,5.441608E1,0E0,0E0],"parents":[2147483647,0,0,2,2],"right_children":[2,-1,4,-1,-1],"split_conditions":[3.478274E-1,-7.663278E-3,1E0,7.7137277E-3,-5.357821E-3],"split_indices":[2,0,12,0,0],"split_type":[0,0,0,0,0],"sum_hessian":[9.1198235E1,3.9400547E1,5.1797688E1,4.2817646E1,8.980044E0],"tree_param":{"num_deleted":"0","num_feature":"18","num_nodes":"5","size_leaf_vector":"1"}},{"base_weights":[3.2335874E-2,-1.4676088E0,1.148289E0,-7.7055125E-3,2.1816443E-3,7.774494E-3,-4.8928154E-3],"categories":[],"categories_nodes":[],"categories_segments":[],"categories_sizes":[],"default_left":[0,0,0,0,0,0,0],"id":63,"left_children":[1,3,5,-1,-1,-1,-1],"loss_changes":[1.4823657E2,5.960182E0,4.5421585E1,0E0,0E0,0E0,0E0],"parents":[2147483647,0,0,1,1,2,2],"right_children":[2,4,6,-1,-1,-1,-1],"split_conditions":[4.4644904E-1,2.6757444E1,1E0,-7.7055125E-3,2.1816443E-3,7.774494E-3,-4.8928154E-3],"split_indices":[2,17,12,0,0,0,0],"split_type":[0,0,0,0,0,0,0],"sum_hessian":[8.65525E1,3.6789234E1,4.9763268E1,3.5605404E1,1.1838293E0,4.2002235E1,7.7610326E0],"tree_param":{"num_deleted":"0","num_feature":"18","num_nodes":"7","size_leaf_vector":"1"}},{"base_weights":[3.3921417E-2,-7.6803085E-3,1.1643876E0,7.6819835E-3,-4.354644E-3],"categories":[],"categories_nodes":[],"categories_segments":[],"categories_sizes":[],"default_left":[0,0,0,0,0],"id":64,"left_children":[1,-1,3,-1,-1],"loss_changes":[1.606481E2,0E0,4.1169594E1,0E0,0E0],"parents":[2147483647,0,0,2,2],"right_children":[2,-1,4,-1,-1],"split_conditions":[3.005646E-1,-7.6803085E-3,1E0,7.6819835E-3,-4.354644E-3],"split_indices":[2,0,12,0,0],"split_type":[0,0,0,0,0],"sum_hessian":[8.850777E1,3.690106E1,5.1606705E1,4.383906E1,7.7676435E0],"tree_param":{"num_deleted":"0","num_feature":"18","num_nodes":"5","size_leaf_vector":"1"}},{"base_weights":[-3.527218E-2,-1.3197303E0,1.2775238E0,-7.6989965E-3,5.372899E-3,7.6841074E-3,-2.3608233E-3],"categories":[],"categories_nodes":[],"categories_segments":[],"categories_sizes":[],"default_left":[0,0,0,0,0,0,0],"id":65,"left_children":[1,3,5,-1,-1,-1,-1],"loss_changes":[1.5008578E2,2.5352776E1,2.0702255E1,0E0,0E0,0E0,0E0],"parents":[2147483647,0,0,1,1,2,2],"right_children":[2,4,6,-1,-1,-1,-1],"split_conditions":[1.5925953E-1,2.4481913E1,1E0,-7.6989965E-3,5.372899E-3,7.6841074E-3,-2.3608233E-3],"split_indices":[3,17,12,0,0,0,0],"split_type":[0,0,0,0,0,0,0],"sum_hessian":[8.700679E1,4.3975376E1,4.303141E1,4.0600536E1,3.3748386E0,3.7583347E1,5.4480624E0],"tree_param":{"num_deleted":"0","num_feature":"18","num_nodes":"7","size_leaf_vector":"1"}},{"base_weights":[-1.8258768E-3,-1.2987643E0,1.3400192E0,-7.674627E-3,5.4949266E-3,7.6571093E-3,-1.7674544E-3],"categories":[],"categories_nodes":[],"categories_segments":[],"categories_sizes":[],"default_left":[0,0,0,0,0,0,0],"id":66,"left_children":[1,3,5,-1,-1,-1,-1],"loss_changes":[1.5364351E2,2.7108086E1,1.4606689E1,0E0,0E0,0E0,0E0],"parents":[2147483647,0,0,1,1,2,2],"right_children":[2,4,6,-1,-1,-1,-1],"split_conditions":[1.9014499E-1,2.4481913E1,1E0,-7.674627E-3,5.4949266E-3,7.6571093E-3,-1.7674544E-3],"split_indices":[3,17,12,0,0,0,0],"split_type":[0,0,0,0,0,0,0],"sum_hessian":[8.628607E1,4.389357E1,4.2392506E1,4.0285576E1,3.607993E0,3.817377E1,4.2187357E0],"tree_param":{"num_deleted":"0","num_feature":"18","num_nodes":"7","size_leaf_vector":"1"}},{"base_weights":[-1.8234057E-2,-1.3123143E0,1.2906243E0,-7.6646893E-3,6.317693E-3,-2.895779E-3,7.610839E-3],"categories":[],"categories_nodes":[],"categories_segments":[],"categories_sizes":[],"default_left":[0,0,0,0,0,0,0],"id":67,"left_children":[1,3,5,-1,-1,-1,-1],"loss_changes":[1.5250684E2,2.7662827E1,2.0264725E1,0E0,0E0,0E0,0E0],"parents":[2147483647,0,0,1,1,2,2],"right_children":[2,4,6,-1,-1,-1,-1],"split_conditions":[1.9014499E-1,2.4906342E1,-9.813628E-1,-7.6646893E-3,6.317693E-3,-2.895779E-3,7.610839E-3],"split_indices":[3,17,6,0,0,0,0],"split_type":[0,0,0,0,0,0,0],"sum_hessian":[8.804005E1,4.426862E1,4.3771427E1,4.114905E1,3.1195645E0,4.6577215E0,3.9113705E1],"tree_param":{"num_deleted":"0","num_feature":"18","num_nodes":"7","size_leaf_vector":"1"}},{"base_weights":[1.19137475E-2,-1.4299524E0,1.1250033E0,-7.6022004E-3,2.7286687E-3,-3.405179E-3,7.4270708E-3],"categories":[],"categories_nodes":[],"categories_segments":[],"categories_sizes":[],"default_left":[0,0,0,0,0,0,0],"id":68,"left_children":[1,3,5,-1,-1,-1,-1],"loss_changes":[1.4125557E2,7.685364E0,3.3338562E1,0E0,0E0,0E0,0E0],"parents":[2147483647,0,0,1,1,2,2],"right_children":[2,4,6,-1,-1,-1,-1],"split_conditions":[4.4644904E-1,2.6757444E1,-9.813628E-1,-7.6022004E-3,2.7286687E-3,-3.405179E-3,7.4270708E-3],"split_indices":[2,17,6,0,0,0,0],"split_type":[0,0,0,0,0,0,0],"sum_hessian":[8.601139E1,3.7347622E1,4.866377E1,3.5932323E1,1.4152994E0,7.947713E0,4.0716057E1],"tree_param":{"num_deleted":"0","num_feature":"18","num_nodes":"7","size_leaf_vector":"1"}},{"base_weights":[-1.50468405E-2,-7.5764996E-3,1.0546135E0,7.567561E-3,-4.6648635E-3],"categories":[],"categories_nodes":[],"categories_segments":[],"categories_sizes":[],"default_left":[0,0,0,0,0],"id":69,"left_children":[1,-1,3,-1,-1],"loss_changes":[1.4730501E2,0E0,5.0295673E1,0E0,0E0],"parents":[2147483647,0,0,2,2],"right_children":[2,-1,4,-1,-1],"split_conditions":[3.005646E-1,-7.5764996E-3,1E0,7.567561E-3,-4.6648635E-3],"split_indices":[2,0,12,0,0],"split_type":[0,0,0,0,0],"sum_hessian":[8.979666E1,3.7202145E1,5.2594517E1,4.2922894E1,9.671626E0],"tree_param":{"num_deleted":"0","num_feature":"18","num_nodes":"5","size_leaf_vector":"1"}},{"base_weights":[4.563368E-2,-1.2988797E0,1.341689E0,-7.583415E-3,5.12468E-3,7.5762793E-3,-1.3899694E-3],"categories":[],"categories_nodes":[],"categories_segments":[],"categories_sizes":[],"default_left":[0,0,0,0,0,0,0],"id":70,"left_children":[1,3,5,-1,-1,-1,-1],"loss_changes":[1.4586816E2,2.235849E1,1.239856E1,0E0,0E0,0E0,0E0],"parents":[2147483647,0,0,1,1,2,2],"right_children":[2,4,6,-1,-1,-1,-1],"split_conditions":[1.9014499E-1,2.4481913E1,1E0,-7.583415E-3,5.12468E-3,7.5762793E-3,-1.3899694E-3],"split_indices":[3,17,12,0,0,0,0],"split_type":[0,0,0,0,0,0,0],"sum_hessian":[8.1708855E1,4.0103622E1,4.1605232E1,3.698452E1,3.1191034E0,3.7636536E1,3.9686956E0],"tree_param":{"num_deleted":"0","num_feature":"18","num_nodes":"7","size_leaf_vector":"1"}},{"base_weights":[-2.646761E-2,-7.429511E-3,1.0470402E0,7.5153606E-3,-5.225765E-3],"categories":[],"categories_nodes":[],"categories_segments":[],"categories_sizes":[],"default_left":[0,0,0,0,0],"id":71,"left_children":[1,-1,3,-1,-1],"loss_changes":[1.3815935E2,0E0,5.0062984E1,0E0,0E0],"parents":[2147483647,0,0,2,2],"right_children":[2,-1,4,-1,-1],"split_conditions":[1.1018113E0,-7.429511E-3,1E0,7.5153606E-3,-5.225765E-3],"split_indices":[17,0,12,0,0],"split_type":[0,0,0,0,0],"sum_hessian":[8.61911E1,3.636657E1,4.9824528E1,4.1139088E1,8.68544E0],"tree_param":{"num_deleted":"0","num_feature":"18","num_nodes":"5","size_leaf_vector":"1"}},{"base_weights":[-5.960325E-2,-1.3529334E0,1.2688423E0,-7.4006645E-3,2.706194E-3,7.548694E-3,-3.187549E-3],"categories":[],"categories_nodes":[],"categories_segments":[],"categories_sizes":[],"default_left":[0,0,0,0,0,0,0],"id":72,"left_children":[1,3,5,-1,-1,-1,-1],"loss_changes":[1.551521E2,1.1820206E1,2.143058E1,0E0,0E0,0E0,0E0],"parents":[2147483647,0,0,1,1,2,2],"right_children":[2,4,6,-1,-1,-1,-1],"split_conditions":[1.9014499E-1,6.429091E-1,1E0,-7.4006645E-3,2.706194E-3,7.548694E-3,-3.187549E-3],"split_indices":[3,2,12,0,0,0,0],"split_type":[0,0,0,0,0,0,0],"sum_hessian":[8.830433E1,4.4734188E1,4.357014E1,4.2124016E1,2.610173E0,3.8866783E1,4.703358E0],"tree_param":{"num_deleted":"0","num_feature":"18","num_nodes":"7","size_leaf_vector":"1"}},{"base_weights":[-4.0674683E-2,-1.2407521E0,1.2422171E0,-7.5473064E-3,6.5233842E-3,7.507206E-3,-3.829914E-3],"categories":[],"categories_nodes":[],"categories_segments":[],"categories_sizes":[],"default_left":[0,0,0,0,0,0,0],"id":73,"left_children":[1,3,5,-1,-1,-1,-1],"loss_changes":[1.3349791E2,3.2601173E1,2.297535E1,0E0,0E0,0E0,0E0],"parents":[2147483647,0,0,1,1,2,2],"right_children":[2,4,6,-1,-1,-1,-1],"split_conditions":[1.9014499E-1,2.4906342E1,1E0,-7.5473064E-3,6.5233842E-3,7.507206E-3,-3.829914E-3],"split_indices":[3,17,12,0,0,0,0],"split_type":[0,0,0,0,0,0,0],"sum_hessian":[8.471008E1,4.3784676E1,4.0925404E1,3.9972008E1,3.812668E0,3.6470085E1,4.4553185E0],"tree_param":{"num_deleted":"0","num_feature":"18","num_nodes":"7","size_leaf_vector":"1"}},{"base_weights":[6.3839704E-2,-1.2937698E0,1.2949438E0,-7.5047044E-3,5.9645507E-3,7.5039878E-3,-2.6120483E-3],"categories":[],"categories_nodes":[],"categories_segments":[],"categories_sizes":[],"default_left":[0,0,0,0,0,0,0],"id":74,"left_children":[1,3,5,-1,-1,-1,-1],"loss_changes":[1.3995139E2,2.2317406E1,1.7202782E1,0E0,0E0,0E0,0E0],"parents":[2147483647,0,0,1,1,2,2],"right_children":[2,4,6,-1,-1,-1,-1],"split_conditions":[1.9014499E-1,2.4906342E1,1E0,-7.5047044E-3,5.9645507E-3,7.5039878E-3,-2.6120483E-3],"split_indices":[3,17,12,0,0,0,0],"split_type":[0,0,0,0,0,0,0],"sum_hessian":[8.17327E1,3.884508E1,4.288761E1,3.6223614E1,2.6214652E0,3.8680424E1,4.207191E0],"tree_param":{"num_deleted":"0","num_feature":"18","num_nodes":"7","size_leaf_vector":"1"}},{"base_weights":[-5.9396036E-2,-7.451582E-3,1.0038993E0,7.422301E-3,-5.2323197E-3],"categories":[],"categories_nodes":[],"categories_segments":[],"categories_sizes":[],"default_left":[0,0,0,0,0],"id":75,"left_children":[1,-1,3,-1,-1],"loss_changes":[1.3302164E2,0E0,5.1007557E1,0E0,0E0],"parents":[2147483647,0,0,2,2],"right_children":[2,-1,4,-1,-1],"split_conditions":[3.005646E-1,-7.451582E-3,1E0,7.422301E-3,-5.2323197E-3],"split_indices":[2,0,12,0,0],"split_type":[0,0,0,0,0],"sum_hessian":[8.5445145E1,3.6254444E1,4.91907E1,4.007418E1,9.116522E0],"tree_param":{"num_deleted":"0","num_feature":"18","num_nodes":"5","size_leaf_vector":"1"}},{"base_weights":[-7.819888E-3,-1.2556591E0,1.2878562E0,-7.482561E-3,5.49485E-3,7.4649467E-3,-2.6227313E-3],"categories":[],"categories_nodes":[],"categories_segments":[],"categories_sizes":[],"default_left":[0,0,0,0,0,0,0],"id":76,"left_children":[1,3,5,-1,-1,-1,-1],"loss_changes":[1.4479456E2,2.751506E1,1.7118965E1,0E0,0E0,0E0,0E0],"parents":[2147483647,0,0,1,1,2,2],"right_children":[2,4,6,-1,-1,-1,-1],"split_conditions":[1.9014499E-1,2.4906342E1,1E0,-7.482561E-3,5.49485E-3,7.4649467E-3,-2.6227313E-3],"split_indices":[3,17,12,0,0,0,0],"split_type":[0,0,0,0,0,0,0],"sum_hessian":[8.755631E1,4.4617245E1,4.2939068E1,4.0807514E1,3.8097284E0,3.8731556E1,4.2075157E0],"tree_param":{"num_deleted":"0","num_feature":"18","num_nodes":"7","size_leaf_vector":"1"}},{"base_weights":[-3.9241344E-2,-1.3215473E0,1.3258593E0,-7.4718925E-3,4.811962E-3,7.4393055E-3,-7.340006E-4],"categories":[],"categories_nodes":[],"categories_segments":[],"categories_sizes":[],"default_left":[0,0,0,0,0,0,0],"id":77,"left_children":[1,3,5,-1,-1,-1,-1],"loss_changes":[1.5674579E2,1.9658112E1,1.056929E1,0E0,0E0,0E0,0E0],"parents":[2147483647,0,0,1,1,2,2],"right_children":[2,4,6,-1,-1,-1,-1],"split_conditions":[1.9014499E-1,2.4906342E1,1E0,-7.4718925E-3,4.811962E-3,7.4393055E-3,-7.340006E-4],"split_indices":[3,17,12,0,0,0,0],"split_type":[0,0,0,0,0,0,0],"sum_hessian":[8.754367E1,4.5157204E1,4.2386467E1,4.2301823E1,2.8553808E0,3.8176487E1,4.209977E0],"tree_param":{"num_deleted":"0","num_feature":"18","num_nodes":"7","size_leaf_vector":"1"}},{"base_weights":[4.9614992E-2,-1.2743647E0,1.2990023E0,-7.429398E-3,4.9737752E-3,7.4262377E-3,-2.211103E-3],"categories":[],"categories_nodes":[],"categories_segments":[],"categories_sizes":[],"default_left":[0,0,0,0,0,0,0],"id":78,"left_children":[1,3,5,-1,-1,-1,-1],"loss_changes":[1.3922964E2,2.1100304E1,1.469384E1,0E0,0E0,0E0,0E0],"parents":[2147483647,0,0,1,1,2,2],"right_children":[2,4,6,-1,-1,-1,-1],"split_conditions":[1.9014499E-1,2.4809063E1,1E0,-7.429398E-3,4.9737752E-3,7.4262377E-3,-2.211103E-3],"split_indices":[3,17,12,0,0,0,0],"split_type":[0,0,0,0,0,0,0],"sum_hessian":[8.2168465E1,3.9883648E1,4.228482E1,3.6798653E1,3.0849948E0,3.833177E1,3.9530463E0],"tree_param":{"num_deleted":"0","num_feature":"18","num_nodes":"7","size_leaf_vector":"1"}},{"base_weights":[-4.803172E-2,-1.2897785E0,1.2744143E0,-7.428093E-3,6.035509E-3,7.405084E-3,-2.4953552E-3],"categories":[],"categories_nodes":[],"categories_segments":[],"categories_sizes":[],"default_left":[0,0,0,0,0,0,0],"id":79,"left_children":[1,3,5,-1,-1,-1,-1],"loss_changes":[1.4420003E2,2.3929161E1,1.6327003E1,0E0,0E0,0E0,0E0],"parents":[2147483647,0,0,1,1,2,2],"right_children":[2,4,6,-1,-1,-1,-1],"split_conditions":[1.7153311E-1,2.4809063E1,1E0,-7.428093E-3,6.035509E-3,7.405084E-3,-2.4953552E-3],"split_indices":[3,17,12,0,0,0,0],"split_type":[0,0,0,0,0,0,0],"sum_hessian":[8.581114E1,4.426862E1,4.1542526E1,4.142454E1,2.8440778E0,3.735568E1,4.1868453E0],"tree_param":{"num_deleted":"0","num_feature":"18","num_nodes":"7","size_leaf_vector":"1"}},{"base_weights":[-1.733259E-2,-1.2489685E0,1.2691509E0,-7.4111247E-3,6.206567E-3,-2.5940838E-3,7.4538323E-3],"categories":[],"categories_nodes":[],"categories_segments":[],"categories_sizes":[],"default_left":[0,0,0,0,0,0,0],"id":80,"left_children":[1,3,5,-1,-1,-1,-1],"loss_changes":[1.3608232E2,2.7323174E1,1.7421005E1,0E0,0E0,0E0,0E0],"parents":[2147483647,0,0,1,1,2,2],"right_children":[2,4,6,-1,-1,-1,-1],"split_conditions":[1.9014499E-1,2.4906342E1,-9.813628E-1,-7.4111247E-3,6.206567E-3,-2.5940838E-3,7.4538323E-3],"split_indices":[3,17,6,0,0,0,0],"split_type":[0,0,0,0,0,0,0],"sum_hessian":[8.388418E1,4.2870533E1,4.1013645E1,3.956903E1,3.3015041E0,4.3750706E0,3.6638573E1],"tree_param":{"num_deleted":"0","num_feature":"18","num_nodes":"7","size_leaf_vector":"1"}},{"base_weights":[5.5124044E-2,-1.2697494E0,1.2821642E0,-7.1825483E-3,3.9639683E-3,-1.8221146E-3,7.3239813E-3],"categories":[],"categories_nodes":[],"categories_segments":[],"categories_sizes":[],"default_left":[0,0,0,0,0,0,0],"id":81,"left_children":[1,3,5,-1,-1,-1,-1],"loss_changes":[1.4323497E2,1.5717552E1,1.428289E1,0E0,0E0,0E0,0E0],"parents":[2147483647,0,0,1,1,2,2],"right_children":[2,4,6,-1,-1,-1,-1],"split_conditions":[1.9014499E-1,6.429091E-1,-9.813628E-1,-7.1825483E-3,3.9639683E-3,-1.8221146E-3,7.3239813E-3],"split_indices":[3,2,6,0,0,0,0],"split_type":[0,0,0,0,0,0,0],"sum_hessian":[8.610667E1,4.1386055E1,4.4720615E1,3.857104E1,2.8150141E0,4.365593E0,4.0355022E1],"tree_param":{"num_deleted":"0","num_feature":"18","num_nodes":"7","size_leaf_vector":"1"}},{"base_weights":[1.458854E-2,-1.4040525E0,1.0434289E0,-7.3029357E-3,6.4140477E-4,-3.2512827E-3,7.1309726E-3],"categories":[],"categories_nodes":[],"categories_segments":[],"categories_sizes":[],"default_left":[0,0,0,0,0,0,0],"id":82,"left_children":[1,3,5,-1,-1,-1,-1],"loss_changes":[1.2129531E2,3.214096E0,3.2149994E1,0E0,0E0,0E0,0E0],"parents":[2147483647,0,0,1,1,2,2],"right_children":[2,4,6,-1,-1,-1,-1],"split_conditions":[4.4644904E-1,1.2649857E1,-9.813628E-1,-7.3029357E-3,6.4140477E-4,-3.2512827E-3,7.1309726E-3],"split_indices":[2,17,6,0,0,0,0],"split_type":[0,0,0,0,0,0,0],"sum_hessian":[8.110055E1,3.3938686E1,4.7161865E1,3.2776245E1,1.1624415E0,8.564831E0,3.8597034E1],"tree_param":{"num_deleted":"0","num_feature":"18","num_nodes":"7","size_leaf_vector":"1"}},{"base_weights":[-7.816061E-3,-1.257652E0,1.2770822E0,-7.3565925E-3,5.0729834E-3,7.3300805E-3,-1.6950177E-3],"categories":[],"categories_nodes":[],"categories_segments":[],"categories_sizes":[],"default_left":[0,0,0,0,0,0,0],"id":83,"left_children":[1,3,5,-1,-1,-1,-1],"loss_changes":[1.3674431E2,2.244764E1,1.3317749E1,0E0,0E0,0E0,0E0],"parents":[2147483647,0,0,1,1,2,2],"right_children":[2,4,6,-1,-1,-1,-1],"split_conditions":[1.9014499E-1,2.4906342E1,1E0,-7.3565925E-3,5.0729834E-3,7.3300805E-3,-1.6950177E-3],"split_indices":[3,17,12,0,0,0,0],"split_type":[0,0,0,0,0,0,0],"sum_hessian":[8.315044E1,4.2161064E1,4.0989372E1,3.8859474E1,3.3015895E0,3.6782093E1,4.207277E0],"tree_param":{"num_deleted":"0","num_feature":"18","num_nodes":"7","size_leaf_vector":"1"}},{"base_weights":[-2.6817387E-2,-7.284546E-3,1.0010571E0,7.2834943E-3,-4.8026177E-3],"categories":[],"categories_nodes":[],"categories_segments":[],"categories_sizes":[],"default_left":[0,0,0,0,0],"id":84,"left_children":[1,-1,3,-1,-1],"loss_changes":[1.298665E2,0E0,4.7355114E1,0E0,0E0],"parents":[2147483647,0,0,2,2],"right_children":[2,-1,4,-1,-1],"split_conditions":[3.005646E-1,-7.284546E-3,1E0,7.2834943E-3,-4.8026177E-3],"split_indices":[2,0,12,0,0],"split_type":[0,0,0,0,0],"sum_hessian":[8.6355095E1,3.59375E1,5.041759E1,4.112284E1,9.294749E0],"tree_param":{"num_deleted":"0","num_feature":"18","num_nodes":"5","size_leaf_vector":"1"}},{"base_weights":[3.386804E-2,-1.3681209E0,1.1653E0,-7.2866124E-3,4.1890456E-3,7.256066E-3,-3.2795232E-3],"categories":[],"categories_nodes":[],"categories_segments":[],"categories_sizes":[],"default_left":[0,0,0,0,0,0,0],"id":85,"left_children":[1,3,5,-1,-1,-1,-1],"loss_changes":[1.3825996E2,8.88279E0,2.6059639E1,0E0,0E0,0E0,0E0],"parents":[2147483647,0,0,1,1,2,2],"right_children":[2,4,6,-1,-1,-1,-1],"split_conditions":[4.574772E-1,2.6757444E1,1E0,-7.2866124E-3,4.1890456E-3,7.256066E-3,-3.2795232E-3],"split_indices":[2,17,12,0,0,0,0],"split_type":[0,0,0,0,0,0,0],"sum_hessian":[8.5156204E1,3.793754E1,4.7218662E1,3.6789246E1,1.1482924E0,4.0987186E1,6.2314744E0],"tree_param":{"num_deleted":"0","num_feature":"18","num_nodes":"7","size_leaf_vector":"1"}},{"base_weights":[4.3612953E-2,-7.2399154E-3,1.1497234E0,-1.8810349E-3,7.290969E-3],"categories":[],"categories_nodes":[],"categories_segments":[],"categories_sizes":[],"default_left":[0,0,0,0,0],"id":86,"left_children":[1,-1,3,-1,-1],"loss_changes":[1.364039E2,0E0,2.2883553E1,0E0,0E0],"parents":[2147483647,0,0,2,2],"right_children":[2,-1,4,-1,-1],"split_conditions":[3.005646E-1,-7.2399154E-3,-9.813628E-1,-1.8810349E-3,7.290969E-3],"split_indices":[2,0,6,0,0],"split_type":[0,0,0,0,0],"sum_hessian":[8.0666504E1,3.4216408E1,4.6450096E1,7.7740626E0,3.8676033E1],"tree_param":{"num_deleted":"0","num_feature":"18","num_nodes":"5","size_leaf_vector":"1"}},{"base_weights":[1.9215422E-2,-7.2311973E-3,1.0579855E0,7.3209023E-3,-4.111606E-3],"categories":[],"categories_nodes":[],"categories_segments":[],"categories_sizes":[],"default_left":[0,0,0,0,0],"id":87,"left_children":[1,-1,3,-1,-1],"loss_changes":[1.3456392E2,0E0,4.0705147E1,0E0,0E0],"parents":[2147483647,0,0,2,2],"right_children":[2,-1,4,-1,-1],"split_conditions":[1.1018113E0,-7.2311973E-3,1E0,7.3209023E-3,-4.111606E-3],"split_indices":[17,0,12,0,0],"split_type":[0,0,0,0,0],"sum_hessian":[8.639169E1,3.5673164E1,5.0718525E1,4.1890415E1,8.828107E0],"tree_param":{"num_deleted":"0","num_feature":"18","num_nodes":"5","size_leaf_vector":"1"}},{"base_weights":[1.0388646E-2,-7.208599E-3,1.0400352E0,7.1955826E-3,-4.4082925E-3],"categories":[],"categories_nodes":[],"categories_segments":[],"categories_sizes":[],"default_left":[0,0,0,0,0],"id":88,"left_children":[1,-1,3,-1,-1],"loss_changes":[1.2943126E2,0E0,4.010955E1,0E0,0E0],"parents":[2147483647,0,0,2,2],"right_children":[2,-1,4,-1,-1],"split_conditions":[3.005646E-1,-7.208599E-3,1E0,7.1955826E-3,-4.4082925E-3],"split_indices":[2,0,12,0,0],"split_type":[0,0,0,0,0],"sum_hessian":[8.456406E1,3.491844E1,4.9645615E1,4.1316475E1,8.329141E0],"tree_param":{"num_deleted":"0","num_feature":"18","num_nodes":"5","size_leaf_vector":"1"}},{"base_weights":[1.8003233E-2,-7.0950296E-3,1.0440003E0,7.195099E-3,-4.3601E-3],"categories":[],"categories_nodes":[],"categories_segments":[],"categories_sizes":[],"default_left":[0,0,0,0,0],"id":89,"left_children":[1,-1,3,-1,-1],"loss_changes":[1.2843047E2,0E0,3.971303E1,0E0,0E0],"parents":[2147483647,0,0,2,2],"right_children":[2,-1,4,-1,-1],"split_conditions":[0E0,-7.0950296E-3,1E0,7.195099E-3,-4.3601E-3],"split_indices":[4,0,12,0,0],"split_type":[0,0,0,0,0],"sum_hessian":[8.5104065E1,3.5291634E1,4.9812435E1,4.1504536E1,8.3078985E0],"tree_param":{"num_deleted":"0","num_feature":"18","num_nodes":"5","size_leaf_vector":"1"}},{"base_weights":[3.7131105E-3,-1.2676796E0,1.2676045E0,-7.2320714E-3,4.6223686E-3,-1.7912992E-3,7.3054507E-3],"categories":[],"categories_nodes":[],"categories_segments":[],"categories_sizes":[],"default_left":[0,0,0,0,0,0,0],"id":90,"left_children":[1,3,5,-1,-1,-1,-1],"loss_changes":[1.3677904E2,1.7963943E1,1.3951149E1,0E0,0E0,0E0,0E0],"parents":[2147483647,0,0,1,1,2,2],"right_children":[2,4,6,-1,-1,-1,-1],"split_conditions":[1.9014499E-1,2.4906342E1,-9.813628E-1,-7.2320714E-3,4.6223686E-3,-1.7912992E-3,7.3054507E-3],"split_indices":[3,17,6,0,0,0,0],"split_type":[0,0,0,0,0,0,0],"sum_hessian":[8.311969E1,4.1435387E1,4.1684303E1,3.862623E1,2.8091605E0,4.3425093E0,3.7341797E1],"tree_param":{"num_deleted":"0","num_feature":"18","num_nodes":"7","size_leaf_vector":"1"}},{"base_weights":[4.4861846E-2,-1.3962483E0,1.0914742E0,-7.144488E-3,-1.1637012E-3,7.2526163E-3,-3.890784E-3],"categories":[],"categories_nodes":[],"categories_segments":[],"categories_sizes":[],"default_left":[0,0,0,0,0,0,0],"id":91,"left_children":[1,3,5,-1,-1,-1,-1],"loss_changes":[1.2483732E2,9.907379E-1,3.3298546E1,0E0,0E0,0E0,0E0],"parents":[2147483647,0,0,1,1,2,2],"right_children":[2,4,6,-1,-1,-1,-1],"split_conditions":[4.0573373E-1,0E0,1E0,-7.144488E-3,-1.1637012E-3,7.2526163E-3,-3.890784E-3],"split_indices":[2,4,12,0,0,0,0],"split_type":[0,0,0,0,0,0,0],"sum_hessian":[8.075739E1,3.3834984E1,4.6922413E1,3.2689587E1,1.1453967E0,3.955108E1,7.371332E0],"tree_param":{"num_deleted":"0","num_feature":"18","num_nodes":"7","size_leaf_vector":"1"}},{"base_weights":[2.0928958E-2,-1.2192574E0,1.2220206E0,-7.1966606E-3,5.933786E-3,-2.9359078E-3,7.1465946E-3],"categories":[],"categories_nodes":[],"categories_segments":[],"categories_sizes":[],"default_left":[0,0,0,0,0,0,0],"id":92,"left_children":[1,3,5,-1,-1,-1,-1],"loss_changes":[1.2524437E2,2.361657E1,1.685545E1,0E0,0E0,0E0,0E0],"parents":[2147483647,0,0,1,1,2,2],"right_children":[2,4,6,-1,-1,-1,-1],"split_conditions":[1.7153311E-1,2.4906342E1,-9.813628E-1,-7.1966606E-3,5.933786E-3,-2.9359078E-3,7.1465946E-3],"split_indices":[3,17,6,0,0,0,0],"split_type":[0,0,0,0,0,0,0],"sum_hessian":[8.2080215E1,4.037545E1,4.1704765E1,3.7359962E1,3.0154874E0,4.098905E0,3.760586E1],"tree_param":{"num_deleted":"0","num_feature":"18","num_nodes":"7","size_leaf_vector":"1"}},{"base_weights":[-2.0781439E-2,-1.2220343E0,1.2154697E0,-7.1861013E-3,5.945674E-3,7.152714E-3,-3.8267758E-3],"categories":[],"categories_nodes":[],"categories_segments":[],"categories_sizes":[],"default_left":[0,0,0,0,0,0,0],"id":93,"left_children":[1,3,5,-1,-1,-1,-1],"loss_changes":[1.2410784E2,2.3696404E1,1.8644516E1,0E0,0E0,0E0,0E0],"parents":[2147483647,0,0,1,1,2,2],"right_children":[2,4,6,-1,-1,-1,-1],"split_conditions":[1.9014499E-1,2.4906342E1,1E0,-7.1861013E-3,5.945674E-3,7.152714E-3,-3.8267758E-3],"split_indices":[3,17,12,0,0,0,0],"split_type":[0,0,0,0,0,0,0],"sum_hessian":[8.157127E1,4.1377083E1,4.0194195E1,3.8357754E1,3.0193262E0,3.6508045E1,3.6861494E0],"tree_param":{"num_deleted":"0","num_feature":"18","num_nodes":"7","size_leaf_vector":"1"}},{"base_weights":[-5.705314E-2,-7.1247094E-3,1.0416802E0,-3.203865E-3,6.9405427E-3],"categories":[],"categories_nodes":[],"categories_segments":[],"categories_sizes":[],"default_left":[0,0,0,0,0],"id":94,"left_children":[1,-1,3,-1,-1],"loss_changes":[1.3040805E2,0E0,2.8952621E1,0E0,0E0],"parents":[2147483647,0,0,2,2],"right_children":[2,-1,4,-1,-1],"split_conditions":[3.005646E-1,-7.1247094E-3,-9.813628E-1,-3.203865E-3,6.9405427E-3],"split_indices":[2,0,6,0,0],"split_type":[0,0,0,0,0],"sum_hessian":[8.478072E1,3.7632515E1,4.7148205E1,7.9054055E0,3.92428E1],"tree_param":{"num_deleted":"0","num_feature":"18","num_nodes":"5","size_leaf_vector":"1"}},{"base_weights":[3.7527666E-3,-1.3908595E0,1.0557144E0,-7.116307E-3,-1.0346908E-3,7.0811426E-3,-4.3305364E-3],"categories":[],"categories_nodes":[],"categories_segments":[],"categories_sizes":[],"default_left":[0,0,0,0,0,0,0],"id":95,"left_children":[1,3,5,-1,-1,-1,-1],"loss_changes":[1.221947E2,1.0793457E0,3.4120167E1,0E0,0E0,0E0,0E0],"parents":[2147483647,0,0,1,1,2,2],"right_children":[2,4,6,-1,-1,-1,-1],"split_conditions":[4.4644904E-1,1.0241287E-1,1E0,-7.116307E-3,-1.0346908E-3,7.0811426E-3,-4.3305364E-3],"split_indices":[2,3,12,0,0,0,0],"split_type":[0,0,0,0,0,0,0],"sum_hessian":[8.129031E1,3.481415E1,4.6476162E1,3.3689957E1,1.1241951E0,3.9356384E1,7.1197753E0],"tree_param":{"num_deleted":"0","num_feature":"18","num_nodes":"7","size_leaf_vector":"1"}},{"base_weights":[3.4770254E-2,-7.0667528E-3,9.937068E-1,7.165728E-3,-4.290086E-3],"categories":[],"categories_nodes":[],"categories_segments":[],"categories_sizes":[],"default_left":[0,0,0,0,0],"id":96,"left_children":[1,-1,3,-1,-1],"loss_changes":[1.1819111E2,0E0,4.2878468E1,0E0,0E0],"parents":[2147483647,0,0,2,2],"right_children":[2,-1,4,-1,-1],"split_conditions":[3.005646E-1,-7.0667528E-3,1E0,7.165728E-3,-4.290086E-3],"split_indices":[2,0,12,0,0],"split_type":[0,0,0,0,0],"sum_hessian":[8.310049E1,3.2917236E1,5.0183247E1,4.074093E1,9.442318E0],"tree_param":{"num_deleted":"0","num_feature":"18","num_nodes":"5","size_leaf_vector":"1"}},{"base_weights":[-1.1713747E-2,-1.2200623E0,1.1701857E0,-7.1113324E-3,4.7030905E-3,-3.944907E-3,7.0565757E-3],"categories":[],"categories_nodes":[],"categories_segments":[],"categories_sizes":[],"default_left":[0,0,0,0,0,0,0],"id":97,"left_children":[1,3,5,-1,-1,-1,-1],"loss_changes":[1.15043846E2,1.8738136E1,2.0353977E1,0E0,0E0,0E0,0E0],"parents":[2147483647,0,0,1,1,2,2],"right_children":[2,4,6,-1,-1,-1,-1],"split_conditions":[1.8338788E-1,2.4906342E1,-9.813628E-1,-7.1113324E-3,4.7030905E-3,-3.944907E-3,7.0565757E-3],"split_indices":[3,17,6,0,0,0,0],"split_type":[0,0,0,0,0,0,0],"sum_hessian":[7.855497E1,3.8826897E1,3.9728073E1,3.5816784E1,3.0101135E0,4.1047926E0,3.562328E1],"tree_param":{"num_deleted":"0","num_feature":"18","num_nodes":"7","size_leaf_vector":"1"}},{"base_weights":[1.6210025E-2,-1.2263162E0,1.2342424E0,-7.108488E-3,4.6827486E-3,7.084815E-3,-2.1055585E-3],"categories":[],"categories_nodes":[],"categories_segments":[],"categories_sizes":[],"default_left":[0,0,0,0,0,0,0],"id":98,"left_children":[1,3,5,-1,-1,-1,-1],"loss_changes":[1.25492386E2,1.8679909E1,1.3259636E1,0E0,0E0,0E0,0E0],"parents":[2147483647,0,0,1,1,2,2],"right_children":[2,4,6,-1,-1,-1,-1],"split_conditions":[1.9014499E-1,2.4906342E1,1E0,-7.108488E-3,4.6827486E-3,7.084815E-3,-2.1055585E-3],"split_indices":[3,17,12,0,0,0,0],"split_type":[0,0,0,0,0,0,0],"sum_hessian":[8.091869E1,4.0053223E1,4.086547E1,3.704909E1,3.004131E0,3.6932785E1,3.932687E0],"tree_param":{"num_deleted":"0","num_feature":"18","num_nodes":"7","size_leaf_vector":"1"}},{"base_weights":[-3.1515986E-2,-1.2315539E0,1.1794416E0,-6.838804E-3,3.5069757E-3,-3.9464314E-3,7.0386645E-3],"categories":[],"categories_nodes":[],"categories_segments":[],"categories_sizes":[],"default_left":[0,0,0,0,0,0,0],"id":99,"left_children":[1,3,5,-1,-1,-1,-1],"loss_changes":[1.25194336E2,1.2348297E1,2.0389439E1,0E0,0E0,0E0,0E0],"parents":[2147483647,0,0,1,1,2,2],"right_children":[2,4,6,-1,-1,-1,-1],"split_conditions":[1.9014499E-1,6.3738626E-1,-9.813628E-1,-6.838804E-3,3.5069757E-3,-3.9464314E-3,7.0386645E-3],"split_indices":[3,2,6,0,0,0,0],"split_type":[0,0,0,0,0,0,0],"sum_hessian":[8.415154E1,4.2257793E1,4.189375E1,3.9749226E1,2.5085666E0,4.0978208E0,3.779593E1],"tree_param":{"num_deleted":"0","num_feature":"18","num_nodes":"7","size_leaf_vector":"1"}},{"base_weights":[1.5907679E-2,-1.1881996E0,1.209001E0,-7.0761894E-3,5.01224E-3,7.0493375E-3,-2.4045531E-3],"categories":[],"categories_nodes":[],"categories_segments":[],"categories_sizes":[],"default_left":[0,0,0,0,0,0,0],"id":100,"left_children":[1,3,5,-1,-1,-1,-1],"loss_changes":[1.1924219E2,2.1968231E1,1.4827938E1,0E0,0E0,0E0,0E0],"parents":[2147483647,0,0,1,1,2,2],"right_children":[2,4,6,-1,-1,-1,-1],"split_conditions":[1.9014499E-1,2.4906342E1,1E0,-7.0761894E-3,5.01224E-3,7.0493375E-3,-2.4045531E-3],"split_indices":[3,17,12,0,0,0,0],"split_type":[0,0,0,0,0,0,0],"sum_hessian":[8.1002396E1,4.0317154E1,4.068524E1,3.6851807E1,3.4653485E0,3.651116E1,4.1740823E0],"tree_param":{"num_deleted":"0","num_feature":"18","num_nodes":"7","size_leaf_vector":"1"}},{"base_weights":[-1.9507499E-3,-1.1941726E0,1.2203289E0,-7.051142E-3,4.851319E-3,7.029287E-3,-9.501218E-4],"categories":[],"categories_nodes":[],"categories_segments":[],"categories_sizes":[],"default_left":[0,0,0,0,0,0,0],"id":101,"left_children":[1,3,5,-1,-1,-1,-1],"loss_changes":[1.15449936E2,2.012302E1,1.0503445E1,0E0,0E0,0E0,0E0],"parents":[2147483647,0,0,1,1,2,2],"right_children":[2,4,6,-1,-1,-1,-1],"split_conditions":[1.9014499E-1,2.4906342E1,1E0,-7.051142E-3,4.851319E-3,7.029287E-3,-9.501218E-4],"split_indices":[3,17,12,0,0,0,0],"split_type":[0,0,0,0,0,0,0],"sum_hessian":[7.722565E1,3.9105152E1,3.81205E1,3.587276E1,3.2323918E0,3.3691635E1,4.4288616E0],"tree_param":{"num_deleted":"0","num_feature":"18","num_nodes":"7","size_leaf_vector":"1"}},{"base_weights":[-6.8393513E-3,-1.2218462E0,1.166026E0,-7.021121E-3,1.8753862E-3,7.0205545E-3,-2.8647457E-3],"categories":[],"categories_nodes":[],"categories_segments":[],"categories_sizes":[],"default_left":[0,0,0,0,0,0,0],"id":102,"left_children":[1,3,5,-1,-1,-1,-1],"loss_changes":[1.14626366E2,1.2032619E1,1.7751072E1,0E0,0E0,0E0,0E0],"parents":[2147483647,0,0,1,1,2,2],"right_children":[2,4,6,-1,-1,-1,-1],"split_conditions":[1.7153311E-1,5.8110565E-1,1E0,-7.021121E-3,1.8753862E-3,7.0205545E-3,-2.8647457E-3],"split_indices":[3,9,12,0,0,0,0],"split_type":[0,0,0,0,0,0,0],"sum_hessian":[7.843757E1,3.8506134E1,3.9931435E1,3.466756E1,3.8385723E0,3.5292118E1,4.639318E0],"tree_param":{"num_deleted":"0","num_feature":"18","num_nodes":"7","size_leaf_vector":"1"}},{"base_weights":[-3.2299828E-2,-1.1904755E0,1.1749363E0,-7.0344894E-3,4.973661E-3,7.004305E-3,-3.3478432E-3],"categories":[],"categories_nodes":[],"categories_segments":[],"categories_sizes":[],"default_left":[0,0,0,0,0,0,0],"id":103,"left_children":[1,3,5,-1,-1,-1,-1],"loss_changes":[1.1757696E2,2.1690132E1,1.8101593E1,0E0,0E0,0E0,0E0],"parents":[2147483647,0,0,1,1,2,2],"right_children":[2,4,6,-1,-1,-1,-1],"split_conditions":[1.9014499E-1,2.4906342E1,1E0,-7.0344894E-3,4.973661E-3,7.004305E-3,-3.3478432E-3],"split_indices":[3,17,12,0,0,0,0],"split_type":[0,0,0,0,0,0,0],"sum_hessian":[8.209179E1,4.19043E1,4.0187485E1,3.845218E1,3.4521222E0,3.6016514E1,4.1709714E0],"tree_param":{"num_deleted":"0","num_feature":"18","num_nodes":"7","size_leaf_vector":"1"}},{"base_weights":[-9.221663E-2,-1.1471691E0,1.216244E0,-7.047588E-3,5.2735E-3,-3.1106954E-3,6.9104293E-3],"categories":[],"categories_nodes":[],"categories_segments":[],"categories_sizes":[],"default_left":[0,0,0,0,0,0,0],"id":104,"left_children":[1,3,5,-1,-1,-1,-1],"loss_changes":[1.1011603E2,2.6972843E1,1.172654E1,0E0,0E0,0E0,0E0],"parents":[2147483647,0,0,1,1,2,2],"right_children":[2,4,6,-1,-1,-1,-1],"split_conditions":[2.226536E-1,2.4906342E1,-9.813628E-1,-7.047588E-3,5.2735E-3,-3.1106954E-3,6.9104293E-3],"split_indices":[3,17,6,0,0,0,0],"split_type":[0,0,0,0,0,0,0],"sum_hessian":[7.776242E1,4.311999E1,3.4642426E1,3.885084E1,4.26915E0,2.6388605E0,3.2003567E1],"tree_param":{"num_deleted":"0","num_feature":"18","num_nodes":"7","size_leaf_vector":"1"}},{"base_weights":[2.6812114E-2,-1.1738309E0,1.1882111E0,-6.9998973E-3,4.9276105E-3,-2.0386165E-3,6.96547E-3],"categories":[],"categories_nodes":[],"categories_segments":[],"categories_sizes":[],"default_left":[0,0,0,0,0,0,0],"id":105,"left_children":[1,3,5,-1,-1,-1,-1],"loss_changes":[1.1511513E2,2.1207233E1,1.4285206E1,0E0,0E0,0E0,0E0],"parents":[2147483647,0,0,1,1,2,2],"right_children":[2,4,6,-1,-1,-1,-1],"split_conditions":[1.9014499E-1,2.4906342E1,-9.813628E-1,-6.9998973E-3,4.9276105E-3,-2.0386165E-3,6.96547E-3],"split_indices":[3,17,6,0,0,0,0],"split_type":[0,0,0,0,0,0,0],"sum_hessian":[8.0553566E1,3.960234E1,4.095122E1,3.6166317E1,3.4360242E0,4.5464735E0,3.6404747E1],"tree_param":{"num_deleted":"0","num_feature":"18","num_nodes":"7","size_leaf_vector":"1"}},{"base_weights":[-6.419877E-2,-1.1649582E0,1.2276584E0,-7.02437E-3,5.052808E-3,-1.0916415E-3,6.9021843E-3],"categories":[],"categories_nodes":[],"categories_segments":[],"categories_sizes":[],"default_left":[0,0,0,0,0,0,0],"id":106,"left_children":[1,3,5,-1,-1,-1,-1],"loss_changes":[1.1248702E2,2.3696587E1,8.34647E0,0E0,0E0,0E0,0E0],"parents":[2147483647,0,0,1,1,2,2],"right_children":[2,4,6,-1,-1,-1,-1],"split_conditions":[2.226536E-1,2.4906342E1,-9.813628E-1,-7.02437E-3,5.052808E-3,-1.0916415E-3,6.9021843E-3],"split_indices":[3,17,6,0,0,0,0],"split_type":[0,0,0,0,0,0,0],"sum_hessian":[7.7097725E1,4.1680786E1,3.541694E1,3.7859848E1,3.8209388E0,3.343455E0,3.2073483E1],"tree_param":{"num_deleted":"0","num_feature":"18","num_nodes":"7","size_leaf_vector":"1"}},{"base_weights":[2.123008E-2,-6.8841195E-3,9.254217E-1,6.99586E-3,-4.9871295E-3],"categories":[],"categories_nodes":[],"categories_segments":[],"categories_sizes":[],"default_left":[0,0,0,0,0],"id":107,"left_children":[1,-1,3,-1,-1],"loss_changes":[9.997921E1,0E0,4.513419E1,0E0,0E0],"parents":[2147483647,0,0,2,2],"right_children":[2,-1,4,-1,-1],"split_conditions":[3.005646E-1,-6.8841195E-3,1E0,6.99586E-3,-4.9871295E-3],"split_indices":[2,0,12,0,0],"split_type":[0,0,0,0,0],"sum_hessian":[7.708274E1,3.006844E1,4.7014297E1,3.7939198E1,9.0751E0],"tree_param":{"num_deleted":"0","num_feature":"18","num_nodes":"5","size_leaf_vector":"1"}},{"base_weights":[-5.3624757E-2,-1.1919048E0,1.1612507E0,-6.956592E-3,4.721986E-3,-2.9049069E-3,6.891667E-3],"categories":[],"categories_nodes":[],"categories_segments":[],"categories_sizes":[],"default_left":[0,0,0,0,0,0,0],"id":108,"left_children":[1,3,5,-1,-1,-1,-1],"loss_changes":[1.1284318E2,1.9251102E1,1.5738018E1,0E0,0E0,0E0,0E0],"parents":[2147483647,0,0,1,1,2,2],"right_children":[2,4,6,-1,-1,-1,-1],"split_conditions":[1.9014499E-1,2.4906342E1,-9.813628E-1,-6.956592E-3,4.721986E-3,-2.9049069E-3,6.891667E-3],"split_indices":[3,17,6,0,0,0,0],"split_type":[0,0,0,0,0,0,0],"sum_hessian":[7.959991E1,4.110521E1,3.84947E1,3.7914772E1,3.1904383E0,4.0793014E0,3.44154E1],"tree_param":{"num_deleted":"0","num_feature":"18","num_nodes":"7","size_leaf_vector":"1"}},{"base_weights":[2.7019747E-2,-6.858541E-3,9.458313E-1,6.866445E-3,-4.7808574E-3],"categories":[],"categories_nodes":[],"categories_segments":[],"categories_sizes":[],"default_left":[0,0,0,0,0],"id":109,"left_children":[1,-1,3,-1,-1],"loss_changes":[1.0214156E2,0E0,4.029791E1,0E0,0E0],"parents":[2147483647,0,0,2,2],"right_children":[2,-1,4,-1,-1],"split_conditions":[3.005646E-1,-6.858541E-3,1E0,6.866445E-3,-4.7808574E-3],"split_indices":[2,0,12,0,0],"split_type":[0,0,0,0,0],"sum_hessian":[7.7467705E1,3.051742E1,4.6950287E1,3.8561844E1,8.388443E0],"tree_param":{"num_deleted":"0","num_feature":"18","num_nodes":"5","size_leaf_vector":"1"}},{"base_weights":[1.3415003E-2,-1.2107545E0,1.2047094E0,-6.9241915E-3,4.3269186E-3,-1.7021184E-3,6.965585E-3],"categories":[],"categories_nodes":[],"categories_segments":[],"categories_sizes":[],"default_left":[0,0,0,0,0,0,0],"id":110,"left_children":[1,3,5,-1,-1,-1,-1],"loss_changes":[1.1884762E2,1.5726967E1,1.2496227E1,0E0,0E0,0E0,0E0],"parents":[2147483647,0,0,1,1,2,2],"right_children":[2,4,6,-1,-1,-1,-1],"split_conditions":[1.9014499E-1,2.4906342E1,-9.813628E-1,-6.9241915E-3,4.3269186E-3,-1.7021184E-3,6.965585E-3],"split_indices":[3,17,6,0,0,0,0],"split_type":[0,0,0,0,0,0,0],"sum_hessian":[7.9494606E1,3.9198277E1,4.029633E1,3.6472996E1,2.7252815E0,4.291863E0,3.6004467E1],"tree_param":{"num_deleted":"0","num_feature":"18","num_nodes":"7","size_leaf_vector":"1"}},{"base_weights":[-1.9937998E-2,-1.1918237E0,1.1848446E0,-6.907152E-3,4.5657395E-3,-2.3443608E-3,6.992027E-3],"categories":[],"categories_nodes":[],"categories_segments":[],"categories_sizes":[],"default_left":[0,0,0,0,0,0,0],"id":111,"left_children":[1,3,5,-1,-1,-1,-1],"loss_changes":[1.1345124E2,1.7515621E1,1.4651722E1,0E0,0E0,0E0,0E0],"parents":[2147483647,0,0,1,1,2,2],"right_children":[2,4,6,-1,-1,-1,-1],"split_conditions":[1.7153311E-1,2.4906342E1,-9.813628E-1,-6.907152E-3,4.5657395E-3,-2.3443608E-3,6.992027E-3],"split_indices":[3,17,6,0,0,0,0],"split_type":[0,0,0,0,0,0,0],"sum_hessian":[7.835526E1,3.9725365E1,3.8629894E1,3.6758087E1,2.9672782E0,4.2813764E0,3.434852E1],"tree_param":{"num_deleted":"0","num_feature":"18","num_nodes":"7","size_leaf_vector":"1"}},{"base_weights":[3.0270712E-3,-1.2012691E0,1.1467836E0,-6.8899165E-3,4.3097115E-3,-2.6725181E-3,6.8426216E-3],"categories":[],"categories_nodes":[],"categories_segments":[],"categories_sizes":[],"default_left":[0,0,0,0,0,0,0],"id":112,"left_children":[1,3,5,-1,-1,-1,-1],"loss_changes":[1.1128787E2,1.5537193E1,1.6179737E1,0E0,0E0,0E0,0E0],"parents":[2147483647,0,0,1,1,2,2],"right_children":[2,4,6,-1,-1,-1,-1],"split_conditions":[1.9014499E-1,2.4809063E1,-9.813628E-1,-6.8899165E-3,4.3097115E-3,-2.6725181E-3,6.8426216E-3],"split_indices":[3,17,6,0,0,0,0],"split_type":[0,0,0,0,0,0,0],"sum_hessian":[7.879422E1,3.8356842E1,4.0437374E1,3.5636677E1,2.7201653E0,4.547409E0,3.5889965E1],"tree_param":{"num_deleted":"0","num_feature":"18","num_nodes":"7","size_leaf_vector":"1"}},{"base_weights":[-7.648577E-3,-1.1524218E0,1.1527711E0,-6.616834E-3,3.2743164E-3,6.853953E-3,-1.9834775E-3],"categories":[],"categories_nodes":[],"categories_segments":[],"categories_sizes":[],"default_left":[0,0,0,0,0,0,0],"id":113,"left_children":[1,3,5,-1,-1,-1,-1],"loss_changes":[1.05495674E2,1.3216274E1,1.3867531E1,0E0,0E0,0E0,0E0],"parents":[2147483647,0,0,1,1,2,2],"right_children":[2,4,6,-1,-1,-1,-1],"split_conditions":[1.8338788E-1,6.429091E-1,1E0,-6.616834E-3,3.2743164E-3,6.853953E-3,-1.9834775E-3],"split_indices":[3,2,12,0,0,0,0],"split_type":[0,0,0,0,0,0,0],"sum_hessian":[7.7414505E1,3.8973446E1,3.844106E1,3.5850254E1,3.1231942E0,3.380044E1,4.6406164E0],"tree_param":{"num_deleted":"0","num_feature":"18","num_nodes":"7","size_leaf_vector":"1"}},{"base_weights":[1.0892636E-2,-1.1519591E0,1.2046821E0,-6.866579E-3,4.7995364E-3,-2.2684415E-3,6.9266395E-3],"categories":[],"categories_nodes":[],"categories_segments":[],"categories_sizes":[],"default_left":[0,0,0,0,0,0,0],"id":114,"left_children":[1,3,5,-1,-1,-1,-1],"loss_changes":[1.09737564E2,2.0040112E1,1.23125725E1,0E0,0E0,0E0,0E0],"parents":[2147483647,0,0,1,1,2,2],"right_children":[2,4,6,-1,-1,-1,-1],"split_conditions":[1.9014499E-1,2.4906342E1,-9.813628E-1,-6.866579E-3,4.7995364E-3,-2.2684415E-3,6.9266395E-3],"split_indices":[3,17,6,0,0,0,0],"split_type":[0,0,0,0,0,0,0],"sum_hessian":[7.705058E1,3.9048798E1,3.8001785E1,3.566071E1,3.3880875E0,3.5844288E0,3.4417355E1],"tree_param":{"num_deleted":"0","num_feature":"18","num_nodes":"7","size_leaf_vector":"1"}},{"base_weights":[3.27115E-2,-1.171954E0,1.2269707E0,-6.8306797E-3,1.6500716E-3,-2.0775795E-3,6.8235323E-3],"categories":[],"categories_nodes":[],"categories_segments":[],"categories_sizes":[],"default_left":[0,0,0,0,0,0,0],"id":115,"left_children":[1,3,5,-1,-1,-1,-1],"loss_changes":[1.14969986E2,1.2057907E1,9.64262E0,0E0,0E0,0E0,0E0],"parents":[2147483647,0,0,1,1,2,2],"right_children":[2,4,6,-1,-1,-1,-1],"split_conditions":[1.8338788E-1,5.7019967E-1,-9.813628E-1,-6.8306797E-3,1.6500716E-3,-2.0775795E-3,6.8235323E-3],"split_indices":[3,9,6,0,0,0,0],"split_type":[0,0,0,0,0,0,0],"sum_hessian":[7.791388E1,3.8797245E1,3.9116634E1,3.443567E1,4.361577E0,2.8704178E0,3.6246216E1],"tree_param":{"num_deleted":"0","num_feature":"18","num_nodes":"7","size_leaf_vector":"1"}},{"base_weights":[3.5115965E-2,-1.1463217E0,1.2081106E0,-6.8360586E-3,4.7991434E-3,-1.33475E-3,6.9005108E-3],"categories":[],"categories_nodes":[],"categories_segments":[],"categories_sizes":[],"default_left":[0,0,0,0,0,0,0],"id":116,"left_children":[1,3,5,-1,-1,-1,-1],"loss_changes":[1.112987E2,1.9934189E1,1.0588818E1,0E0,0E0,0E0,0E0],"parents":[2147483647,0,0,1,1,2,2],"right_children":[2,4,6,-1,-1,-1,-1],"split_conditions":[1.9014499E-1,2.4906342E1,-9.813628E-1,-6.8360586E-3,4.7991434E-3,-1.33475E-3,6.9005108E-3],"split_indices":[3,17,6,0,0,0,0],"split_type":[0,0,0,0,0,0,0],"sum_hessian":[7.83132E1,3.902751E1,3.928569E1,3.564044E1,3.3870704E0,4.044711E0,3.524098E1],"tree_param":{"num_deleted":"0","num_feature":"18","num_nodes":"7","size_leaf_vector":"1"}},{"base_weights":[-1.5889386E-2,-1.1572874E0,1.1083245E0,-6.824802E-3,4.6615778E-3,1.2748622E-3,6.7386827E-3],"categories":[],"categories_nodes":[],"categories_segments":[],"categories_sizes":[],"default_left":[0,0,0,0,0,0,0],"id":117,"left_children":[1,3,5,-1,-1,-1,-1],"loss_changes":[1.02242645E2,1.8427086E1,7.85894E0,0E0,0E0,0E0,0E0],"parents":[2147483647,0,0,1,1,2,2],"right_children":[2,4,6,-1,-1,-1,-1],"split_conditions":[1.9014499E-1,2.4809063E1,-9.7822595E-1,-6.824802E-3,4.6615778E-3,1.2748622E-3,6.7386827E-3],"split_indices":[3,17,7,0,0,0,0],"split_type":[0,0,0,0,0,0,0],"sum_hessian":[7.76798E1,3.8530712E1,3.9149094E1,3.5362984E1,3.1677287E0,9.029534E0,3.0119558E1],"tree_param":{"num_deleted":"0","num_feature":"18","num_nodes":"7","size_leaf_vector":"1"}},{"base_weights":[-4.65575E-3,-6.7500323E-3,1.0017034E0,6.8609267E-3,-4.4996897E-3],"categories":[],"categories_nodes":[],"categories_segments":[],"categories_sizes":[],"default_left":[0,0,0,0,0],"id":118,"left_children":[1,-1,3,-1,-1],"loss_changes":[1.0493044E2,0E0,3.2473106E1,0E0,0E0],"parents":[2147483647,0,0,2,2],"right_children":[2,-1,4,-1,-1],"split_conditions":[3.005646E-1,-6.7500323E-3,1E0,6.8609267E-3,-4.4996897E-3],"split_indices":[2,0,12,0,0],"split_type":[0,0,0,0,0],"sum_hessian":[7.550319E1,3.2163696E1,4.3339493E1,3.650578E1,6.8337154E0],"tree_param":{"num_deleted":"0","num_feature":"18","num_nodes":"5","size_leaf_vector":"1"}},{"base_weights":[1.24199325E-2,-1.2966752E0,1.0359542E0,-6.740238E-3,7.7841437E-4,-2.8282318E-3,6.6503333E-3],"categories":[],"categories_nodes":[],"categories_segments":[],"categories_sizes":[],"default_left":[0,0,0,0,0,0,0],"id":119,"left_children":[1,3,5,-1,-1,-1,-1],"loss_changes":[1.0366184E2,2.7430038E0,2.1201294E1,0E0,0E0,0E0,0E0],"parents":[2147483647,0,0,1,1,2,2],"right_children":[2,4,6,-1,-1,-1,-1],"split_conditions":[5.9519167E0,1.24277346E-1,-9.813628E-1,-6.740238E-3,7.7841437E-4,-2.8282318E-3,6.6503333E-3],"split_indices":[17,3,6,0,0,0,0],"split_type":[0,0,0,0,0,0,0],"sum_hessian":[7.53626E1,3.2951256E1,4.2411346E1,3.18949E1,1.0563548E0,6.436719E0,3.597463E1],"tree_param":{"num_deleted":"0","num_feature":"18","num_nodes":"7","size_leaf_vector":"1"}},{"base_weights":[-8.828233E-3,-1.1412281E0,1.1674322E0,-6.7840004E-3,4.6922616E-3,-1.7673394E-3,6.7228973E-3],"categories":[],"categories_nodes":[],"categories_segments":[],"categories_sizes":[],"default_left":[0,0,0,0,0,0,0],"id":120,"left_children":[1,3,5,-1,-1,-1,-1],"loss_changes":[1.0454079E2,1.9198826E1,1.0848148E1,0E0,0E0,0E0,0E0],"parents":[2147483647,0,0,1,1,2,2],"right_children":[2,4,6,-1,-1,-1,-1],"split_conditions":[1.9014499E-1,2.4809063E1,-9.813628E-1,-6.7840004E-3,4.6922616E-3,-1.7673394E-3,6.7228973E-3],"split_indices":[3,17,6,0,0,0,0],"split_type":[0,0,0,0,0,0,0],"sum_hessian":[7.648402E1,3.898371E1,3.75003E1,3.5637276E1,3.3464358E0,3.8083482E0,3.369195E1],"tree_param":{"num_deleted":"0","num_feature":"18","num_nodes":"7","size_leaf_vector":"1"}},{"base_weights":[1.3200179E-2,-1.1360184E0,1.1391903E0,-6.7698285E-3,4.715343E-3,-2.3728441E-3,6.718089E-3],"categories":[],"categories_nodes":[],"categories_segments":[],"categories_sizes":[],"default_left":[0,0,0,0,0,0,0],"id":121,"left_children":[1,3,5,-1,-1,-1,-1],"loss_changes":[1.0374686E2,1.9258892E1,1.399543E1,0E0,0E0,0E0,0E0],"parents":[2147483647,0,0,1,1,2,2],"right_children":[2,4,6,-1,-1,-1,-1],"split_conditions":[1.9014499E-1,2.4906342E1,-9.813628E-1,-6.7698285E-3,4.715343E-3,-2.3728441E-3,6.718089E-3],"split_indices":[3,17,6,0,0,0,0],"split_type":[0,0,0,0,0,0,0],"sum_hessian":[7.817467E1,3.8683865E1,3.94908E1,3.532914E1,3.3547285E0,4.2915654E0,3.519923E1],"tree_param":{"num_deleted":"0","num_feature":"18","num_nodes":"7","size_leaf_vector":"1"}},{"base_weights":[4.5519054E-2,-1.1275674E0,1.1210203E0,-6.7536286E-3,5.6136986E-3,6.756954E-3,-2.3245348E-3],"categories":[],"categories_nodes":[],"categories_segments":[],"categories_sizes":[],"default_left":[0,0,0,0,0,0,0],"id":122,"left_children":[1,3,5,-1,-1,-1,-1],"loss_changes":[9.79718E1,2.017783E1,1.5421497E1,0E0,0E0,0E0,0E0],"parents":[2147483647,0,0,1,1,2,2],"right_children":[2,4,6,-1,-1,-1,-1],"split_conditions":[1.9014499E-1,2.4906342E1,1E0,-6.7536286E-3,5.6136986E-3,6.756954E-3,-2.3245348E-3],"split_indices":[3,17,12,0,0,0,0],"split_type":[0,0,0,0,0,0,0],"sum_hessian":[7.565146E1,3.6160995E1,3.949046E1,3.326221E1,2.8987865E0,3.461081E1,4.8796535E0],"tree_param":{"num_deleted":"0","num_feature":"18","num_nodes":"7","size_leaf_vector":"1"}},{"base_weights":[3.4160815E-2,-6.6823503E-3,9.760754E-1,6.707689E-3,-4.2762957E-3],"categories":[],"categories_nodes":[],"categories_segments":[],"categories_sizes":[],"default_left":[0,0,0,0,0],"id":123,"left_children":[1,-1,3,-1,-1],"loss_changes":[1.0353371E2,0E0,3.2945297E1,0E0,0E0],"parents":[2147483647,0,0,2,2],"right_children":[2,-1,4,-1,-1],"split_conditions":[3.005646E-1,-6.6823503E-3,1E0,6.707689E-3,-4.2762957E-3],"split_indices":[2,0,12,0,0],"split_type":[0,0,0,0,0],"sum_hessian":[7.818501E1,3.167464E1,4.651037E1,3.8995796E1,7.514575E0],"tree_param":{"num_deleted":"0","num_feature":"18","num_nodes":"5","size_leaf_vector":"1"}},{"base_weights":[-1.8568242E-2,-1.1819453E0,1.1412785E0,-6.732819E-3,5.230847E-3,6.7206006E-3,-1.8412631E-3],"categories":[],"categories_nodes":[],"categories_segments":[],"categories_sizes":[],"default_left":[0,0,0,0,0,0,0],"id":124,"left_children":[1,3,5,-1,-1,-1,-1],"loss_changes":[1.0501787E2,1.5657593E1,1.2431049E1,0E0,0E0,0E0,0E0],"parents":[2147483647,0,0,1,1,2,2],"right_children":[2,4,6,-1,-1,-1,-1],"split_conditions":[1.9014499E-1,2.4906342E1,1E0,-6.732819E-3,5.230847E-3,6.7206006E-3,-1.8412631E-3],"split_indices":[3,17,12,0,0,0,0],"split_type":[0,0,0,0,0,0,0],"sum_hessian":[7.5829414E1,3.784758E1,3.7981834E1,3.561212E1,2.235461E0,3.357924E1,4.4025965E0],"tree_param":{"num_deleted":"0","num_feature":"18","num_nodes":"7","size_leaf_vector":"1"}},{"base_weights":[-4.071947E-2,-1.149277E0,1.12432E0,-6.727318E-3,4.535261E-3,6.7084543E-3,-3.7330883E-3],"categories":[],"categories_nodes":[],"categories_segments":[],"categories_sizes":[],"default_left":[0,0,0,0,0,0,0],"id":125,"left_children":[1,3,5,-1,-1,-1,-1],"loss_changes":[1.01982445E2,1.7536674E1,1.6666756E1,0E0,0E0,0E0,0E0],"parents":[2147483647,0,0,1,1,2,2],"right_children":[2,4,6,-1,-1,-1,-1],"split_conditions":[1.9014499E-1,2.4906342E1,1E0,-6.727318E-3,4.535261E-3,6.7084543E-3,-3.7330883E-3],"split_indices":[3,17,12,0,0,0,0],"split_type":[0,0,0,0,0,0,0],"sum_hessian":[7.696302E1,3.9444424E1,3.7518597E1,3.632453E1,3.1198912E0,3.386674E1,3.651857E0],"tree_param":{"num_deleted":"0","num_feature":"18","num_nodes":"7","size_leaf_vector":"1"}},{"base_weights":[3.064621E-2,-6.633853E-3,9.376396E-1,-1.8518753E-4,6.38553E-3],"categories":[],"categories_nodes":[],"categories_segments":[],"categories_sizes":[],"default_left":[0,0,0,0,0],"id":126,"left_children":[1,-1,3,-1,-1],"loss_changes":[9.410401E1,0E0,1.5201E1,0E0,0E0],"parents":[2147483647,0,0,2,2],"right_children":[2,-1,4,-1,-1],"split_conditions":[3.005646E-1,-6.633853E-3,-9.7822595E-1,-1.8518753E-4,6.38553E-3],"split_indices":[2,0,7,0,0],"split_type":[0,0,0,0,0],"sum_hessian":[7.442428E1,2.9624735E1,4.4799545E1,1.1802646E1,3.2996902E1],"tree_param":{"num_deleted":"0","num_feature":"18","num_nodes":"5","size_leaf_vector":"1"}},{"base_weights":[-4.4474173E-2,-1.1485615E0,1.080534E0,-6.697361E-3,5.4275384E-3,6.6868085E-3,-2.526093E-3],"categories":[],"categories_nodes":[],"categories_segments":[],"categories_sizes":[],"default_left":[0,0,0,0,0,0,0],"id":127,"left_children":[1,3,5,-1,-1,-1,-1],"loss_changes":[9.687106E1,1.8233295E1,1.6416065E1,0E0,0E0,0E0,0E0],"parents":[2147483647,0,0,1,1,2,2],"right_children":[2,4,6,-1,-1,-1,-1],"split_conditions":[1.9014499E-1,2.4906342E1,1E0,-6.697361E-3,5.4275384E-3,6.6868085E-3,-2.526093E-3],"split_indices":[3,17,12,0,0,0,0],"split_type":[0,0,0,0,0,0,0],"sum_hessian":[7.5990135E1,3.83411E1,3.7649036E1,3.569154E1,2.6495607E0,3.253614E1,5.1128993E0],"tree_param":{"num_deleted":"0","num_feature":"18","num_nodes":"7","size_leaf_vector":"1"}},{"base_weights":[-2.2031413E-2,-1.1954315E0,1.1311029E0,-6.6884533E-3,3.7622955E-3,6.6822544E-3,-2.3890813E-3],"categories":[],"categories_nodes":[],"categories_segments":[],"categories_sizes":[],"default_left":[0,0,0,0,0,0,0],"id":128,"left_children":[1,3,5,-1,-1,-1,-1],"loss_changes":[1.045385E2,1.1615253E1,1.351577E1,0E0,0E0,0E0,0E0],"parents":[2147483647,0,0,1,1,2,2],"right_children":[2,4,6,-1,-1,-1,-1],"split_conditions":[1.9014499E-1,2.4906342E1,1E0,-6.6884533E-3,3.7622955E-3,6.6822544E-3,-2.3890813E-3],"split_indices":[3,17,12,0,0,0,0],"split_type":[0,0,0,0,0,0,0],"sum_hessian":[7.5259895E1,3.728398E1,3.797591E1,3.503831E1,2.2456715E0,